/*
 * Copyright (c) 2025 EdgeImpulse Inc.
 *
 * Generated by Edge Impulse and licensed under the applicable Edge Impulse
 * Terms of Service. Community and Professional Terms of Service
 * (https://edgeimpulse.com/legal/terms-of-service) or Enterprise Terms of
 * Service (https://edgeimpulse.com/legal/enterprise-terms-of-service),
 * according to your product plan subscription (the “License”).
 *
 * This software, documentation and other associated files (collectively referred
 * to as the “Software”) is a single SDK variation generated by the Edge Impulse
 * platform and requires an active paid Edge Impulse subscription to use this
 * Software for any purpose.
 *
 * You may NOT use this Software unless you have an active Edge Impulse subscription
 * that meets the eligibility requirements for the applicable License, subject to
 * your full and continued compliance with the terms and conditions of the License,
 * including without limitation any usage restrictions under the applicable License.
 *
 * If you do not have an active Edge Impulse product plan subscription, or if use
 * of this Software exceeds the usage limitations of your Edge Impulse product plan
 * subscription, you are not permitted to use this Software and must immediately
 * delete and erase all copies of this Software within your control or possession.
 * Edge Impulse reserves all rights and remedies available to enforce its rights.
 *
 * Unless required by applicable law or agreed to in writing, the Software is
 * distributed on an "AS IS" BASIS, WITHOUT WARRANTIES OR CONDITIONS OF ANY KIND,
 * either express or implied. See the License for the specific language governing
 * permissions, disclaimers and limitations under the License.
 */
// Generated on: 06.12.2025 11:36:58

#include <stdio.h>
#include <stdlib.h>
#include "edge-impulse-sdk/tensorflow/lite/c/builtin_op_data.h"
#include "edge-impulse-sdk/tensorflow/lite/c/common.h"
#include "edge-impulse-sdk/tensorflow/lite/micro/micro_mutable_op_resolver.h"
#include "edge-impulse-sdk/porting/ei_classifier_porting.h"

#if EI_CLASSIFIER_PRINT_STATE
#if defined(__cplusplus) && EI_C_LINKAGE == 1
extern "C" {
    extern void ei_printf(const char *format, ...);
}
#else
extern void ei_printf(const char *format, ...);
#endif
#endif

#define STRINGIZE(x) #x
#define STRINGIZE_VALUE_OF(x) STRINGIZE(x)

#if defined (__GNUC__)  /* GNU compiler */
#define ALIGN(X) __attribute__((aligned(X)))
#define DEFINE_SECTION(x) __attribute__((section(x)))
#elif defined (_MSC_VER)
#define ALIGN(X) __declspec(align(X))
#elif defined (__TASKING__) /* TASKING Compiler */
#define ALIGN(X) __align(X)
#define DEFINE_SECTION(x) __attribute__((section(x)))
#elif defined (__ARMCC_VERSION) /* Arm Compiler */
#define ALIGN(X) __ALIGNED(x)
#define DEFINE_SECTION(x) __attribute__((section(x)))
#elif defined (__ICCARM__) /* IAR Compiler */
#define ALIGN(x) __attribute__((aligned(x)))
#define DEFINE_SECTION(x) __attribute__((section(x)))
#elif defined (__clang__) /* LLVM/Clang Compiler */
#define ALIGN(X) __ALIGNED(x)
#define DEFINE_SECTION(x) __attribute__((section(x)))
#endif

#if defined(EI_MODEL_SECTION) && (defined(__GNUC__) || defined(__clang__))
#define MODEL_SECTION(X) __attribute__((section(STRINGIZE_VALUE_OF(X))))
#else
#define MODEL_SECTION(X)
#endif

#ifndef EI_MAX_SCRATCH_BUFFER_COUNT
#ifndef CONFIG_IDF_TARGET_ESP32S3
#define EI_MAX_SCRATCH_BUFFER_COUNT 4
#else
#define EI_MAX_SCRATCH_BUFFER_COUNT 4
#endif // CONFIG_IDF_TARGET_ESP32S3
#endif // EI_MAX_SCRATCH_BUFFER_COUNT

#ifndef EI_MAX_OVERFLOW_BUFFER_COUNT
#define EI_MAX_OVERFLOW_BUFFER_COUNT 10
#endif // EI_MAX_OVERFLOW_BUFFER_COUNT

using namespace tflite;
using namespace tflite::ops;
using namespace tflite::ops::micro;

namespace {

#if defined(EI_CLASSIFIER_ALLOCATION_STATIC_HIMAX) || defined(EI_CLASSIFIER_ALLOCATION_STATIC_HIMAX_GNU)
constexpr int kTensorArenaSize = 53408;
#else
constexpr int kTensorArenaSize = 52384;
#endif

#if defined(EI_CLASSIFIER_ALLOCATION_STATIC)
#if defined (EI_TENSOR_ARENA_LOCATION)
uint8_t tensor_arena[kTensorArenaSize] ALIGN(16) DEFINE_SECTION(STRINGIZE_VALUE_OF(EI_TENSOR_ARENA_LOCATION));
#else
uint8_t tensor_arena[kTensorArenaSize] ALIGN(16);
#endif
#elif defined(EI_CLASSIFIER_ALLOCATION_STATIC_HIMAX)
#pragma Bss(".tensor_arena")
uint8_t tensor_arena[kTensorArenaSize] ALIGN(16);
#pragma Bss()
#elif defined(EI_CLASSIFIER_ALLOCATION_STATIC_HIMAX_GNU)
uint8_t tensor_arena[kTensorArenaSize] ALIGN(16) __attribute__((section(".tensor_arena")));
#else
#define EI_CLASSIFIER_ALLOCATION_HEAP 1
uint8_t* tensor_arena = NULL;
#endif

static uint8_t* tensor_boundary;
static uint8_t* current_location;

template <int SZ, class T> struct TfArray {
  int sz; T elem[SZ];
};

enum used_operators_e {
  OP_RESHAPE, OP_CONV_2D, OP_DEPTHWISE_CONV_2D, OP_PAD, OP_MEAN, OP_FULLY_CONNECTED, OP_SOFTMAX,  OP_LAST
};

struct TensorInfo_t { // subset of TfLiteTensor used for initialization from constant memory
  TfLiteAllocationType allocation_type;
  TfLiteType type;
  void* data;
  TfLiteIntArray* dims;
  size_t bytes;
};

typedef struct {
  TfLiteTensor tensor;
  int16_t index;
} TfLiteTensorWithIndex;

typedef struct {
  TfLiteEvalTensor tensor;
  int16_t index;
} TfLiteEvalTensorWithIndex;

TfLiteContext ctx{};
static const int MAX_TFL_TENSOR_COUNT = 4;
static TfLiteTensorWithIndex tflTensors[MAX_TFL_TENSOR_COUNT];
static const int MAX_TFL_EVAL_COUNT = 4;
static TfLiteEvalTensorWithIndex tflEvalTensors[MAX_TFL_EVAL_COUNT];
TfLiteRegistration registrations[OP_LAST];

namespace g0 {
const TfArray<2, int> tensor_dimension0 = { 2, { 1,3960 } };
const MODEL_SECTION(EI_MODEL_SECTION) ALIGN(8) float tensor_data1[3] = { 0.087251961231231689, 0.99979567527770996, 1.2417395114898682, };
const TfArray<1, int> tensor_dimension1 = { 1, { 3 } };
const MODEL_SECTION(EI_MODEL_SECTION) ALIGN(8) float tensor_data2[3] = { -1.2719348669052124, 0.57400006055831909, 0.62702751159667969, };
const MODEL_SECTION(EI_MODEL_SECTION) ALIGN(16) float tensor_data3[6] = { 2.7754485607147217, -0.41447359323501587, -5.0447859764099121, -3.4247324466705322, -4.3788738250732422, -0.28690874576568604, };
const TfArray<1, int> tensor_dimension3 = { 1, { 6 } };
const MODEL_SECTION(EI_MODEL_SECTION) ALIGN(16) float tensor_data4[6] = { 1.4716494083404541, 1.9750425815582275, 0.044921949505805969, 0.39446723461151123, 0.002538532018661499, 0.1310427188873291, };
const MODEL_SECTION(EI_MODEL_SECTION) ALIGN(16) float tensor_data5[12] = { 0.33479002118110657, 0.56632149219512939, 1.1507067680358887, 3.308316707611084, 0.70779842138290405, -0.35038584470748901, 1.1453567743301392, -1.2822220325469971, -0.012579143047332764, -1.7720026969909668, 2.1774694919586182, 0.46177271008491516, };
const TfArray<1, int> tensor_dimension5 = { 1, { 12 } };
const MODEL_SECTION(EI_MODEL_SECTION) ALIGN(16) float tensor_data6[12] = { -0.3714996874332428, -2.6332550048828125, 0.20982359349727631, 1.2228420972824097, -3.5010490417480469, -0.4514157772064209, 0.19761936366558075, 0.37934732437133789, 1.3427481651306152, 0.65073955059051514, 2.0212631225585938, -1.5614986419677734, };
const MODEL_SECTION(EI_MODEL_SECTION) ALIGN(16) float tensor_data7[12] = { 0.51194137334823608, -0.20586401224136353, -0.52571207284927368, 0.47602441906929016, -0.85815107822418213, 0.6750062108039856, -0.98340249061584473, 1.1408967971801758, 0.60772442817687988, 1.0914058685302734, 2.5881969928741455, -2.6976144313812256, };
const MODEL_SECTION(EI_MODEL_SECTION) ALIGN(16) float tensor_data8[12] = { -1.9564892053604126, 0.47595953941345215, 1.3895848989486694, 3.2622880935668945, 0.042440205812454224, 1.5988903045654297, -0.048183023929595947, 0.071524053812026978, 1.5592093467712402, 0.36277544498443604, 2.8195462226867676, 0.047037005424499512, };
const MODEL_SECTION(EI_MODEL_SECTION) ALIGN(16) float tensor_data9[25] = { 0.039936065673828125, -0.17110896110534668, 1.3495652675628662, -1.0279254913330078, 1.0345350503921509, 3.0463221073150635, 1.4543955326080322, 4.3911652565002441, 0.014171898365020752, 0.47127485275268555, -1.3603365421295166, 0.10472738742828369, 1.2252511978149414, -0.54980313777923584, 0.24808216094970703, -1.533326268196106, 1.2839250564575195, 0.1497381329536438, 3.7316329479217529, 0.12634912133216858, -0.59199875593185425, 0.54484862089157104, 2.0920777320861816, 0.12495803833007812, 2.6042459011077881, };
const TfArray<1, int> tensor_dimension9 = { 1, { 25 } };
const MODEL_SECTION(EI_MODEL_SECTION) ALIGN(16) float tensor_data10[25] = { 0.28263556957244873, -0.99385356903076172, 7.1877083778381348, 0.35298064351081848, -0.49360030889511108, 1.2647615671157837, 0.17044053971767426, -0.049532234668731689, -0.238693967461586, 0.058495637029409409, -0.012394696474075317, -0.65323823690414429, 4.0909724235534668, -0.63124167919158936, -1.374408483505249, -0.060547888278961182, -0.13821232318878174, 0.1454395204782486, -0.052402079105377197, -0.02645428478717804, -0.086395084857940674, -0.019726237282156944, -0.94442147016525269, -0.44749101996421814, 2.8809068202972412, };
const MODEL_SECTION(EI_MODEL_SECTION) ALIGN(16) float tensor_data11[25] = { -0.60889345407485962, 0.49894636869430542, 0.90916824340820312, 1.5120387077331543, -0.059371531009674072, 0.6723594069480896, -0.41027343273162842, -0.37630993127822876, 1.776617169380188, -0.51727926731109619, 1.0353949069976807, 0.56059455871582031, 0.23552435636520386, 1.7718596458435059, -2.0783557891845703, -0.60526645183563232, 3.4360213279724121, -0.28495192527770996, 0.6286391019821167, -0.63838356733322144, 0.65614461898803711, 1.0848337411880493, 0.12305188924074173, -0.26045826077461243, 0.51720625162124634, };
const MODEL_SECTION(EI_MODEL_SECTION) ALIGN(16) float tensor_data12[25] = { -0.046179845929145813, -0.092273294925689697, -0.3493492603302002, -1.1805046796798706, 0.14958667755126953, 1.1981260776519775, 0.13791728019714355, -0.015403807163238525, -1.9072232246398926, 0.77982538938522339, 2.5675249099731445, 0.096506297588348389, 0.23304477334022522, 1.7347098588943481, 0.64056974649429321, 0.25773823261260986, 1.120567798614502, 1.4306881427764893, -1.063550591468811, 0.038420990109443665, -0.18445740640163422, 5.3572988510131836, 1.2596547603607178, 2.7512197494506836, -0.27486395835876465, };
const MODEL_SECTION(EI_MODEL_SECTION) ALIGN(16) float tensor_data13[51] = { 1.1997909545898438, -1.7349206209182739, -1.6207675933837891, -1.4863560199737549, 1.1250962018966675, 0.65615689754486084, 1.75669264793396, 0.36485934257507324, 0.27708637714385986, 0.4678378701210022, -1.9961020946502686, -0.38099020719528198, 1.6475489139556885, 0.27699732780456543, 0.037194043397903442, 1.8216437101364136, 0.017838597297668457, -0.98602062463760376, -0.99241364002227783, -0.41577297449111938, 0.14132171869277954, -0.32199674844741821, 0.056030094623565674, 0.34156709909439087, 1.1499125957489014, -2.0039048194885254, -1.3728948831558228, 0.73215317726135254, 0.84512126445770264, 0.76505231857299805, 0.15260079503059387, 0.15275491774082184, 3.5082533359527588, 0.6935543417930603, -2.2705285549163818, 2.5788571834564209, -0.78084969520568848, 0.47398829460144043, -0.056968986988067627, 0.87182366847991943, 0.55021190643310547, 0.83408826589584351, 1.1521520614624023, 0.23965997993946075, 0.97193330526351929, 1.0245085954666138, -0.2228788435459137, 1.1805641651153564, -0.095527946949005127, 1.1530742645263672, -0.29682707786560059, };
const TfArray<1, int> tensor_dimension13 = { 1, { 51 } };
const MODEL_SECTION(EI_MODEL_SECTION) ALIGN(16) float tensor_data14[51] = { 1.0297737121582031, 0.31344476342201233, 0.042262397706508636, 0.077551081776618958, -0.96412193775177002, -0.5799098014831543, -0.25604167580604553, -0.41916206479072571, -0.60373175144195557, -1.2428746223449707, -0.44475167989730835, 2.4611372947692871, 0.92150658369064331, -0.1863512396812439, 0.066957771778106689, -0.086826711893081665, 0.43471407890319824, 0.26150941848754883, -0.036017611622810364, -0.13682170212268829, 0.55949622392654419, -0.50390470027923584, -0.29105320572853088, -0.057706363499164581, -0.24070879817008972, -0.67009788751602173, 0.25933566689491272, -0.14415130019187927, 0.035088181495666504, -0.078869044780731201, 0.13104578852653503, 1.9787811040878296, -0.52686786651611328, 1.0281342267990112, -0.02088247612118721, 0.17336277663707733, 0.26903468370437622, -0.008583366870880127, -0.25946241617202759, 0.098577052354812622, 0.13065615296363831, -0.85088032484054565, 0.32499226927757263, 0.043856486678123474, -0.81789278984069824, -0.68045663833618164, -0.23908460140228271, 1.0115785598754883, 0.18722891807556152, 0.5177757740020752, -1.1776256561279297, };
const MODEL_SECTION(EI_MODEL_SECTION) ALIGN(16) float tensor_data15[51] = { 0.37684297561645508, -0.99907714128494263, -0.46435898542404175, 0.3979034423828125, -0.098287612199783325, 0.11538752913475037, 1.0584605932235718, -0.28469705581665039, -0.071198314428329468, 0.85607278347015381, 1.0607516765594482, 0.86177599430084229, 0.17110669612884521, -0.22844922542572021, 0.32883411645889282, 0.66607600450515747, 0.39898386597633362, 0.5360371470451355, -0.052484422922134399, 0.81338608264923096, -0.39067450165748596, 4.2859311103820801, -0.38074690103530884, 0.86569851636886597, 0.91293364763259888, 1.5201530456542969, 0.410808265209198, -0.30097794532775879, 0.52800321578979492, 1.0707619190216064, 0.76244854927062988, 1.1500066518783569, -0.24524030089378357, 0.0013938546180725098, 1.009171724319458, 0.019550979137420654, -0.74541151523590088, 0.36621373891830444, 0.088747739791870117, 0.31971168518066406, 0.38015687465667725, 0.09222826361656189, 1.1377474069595337, 0.79292905330657959, -0.79017746448516846, 2.2619423866271973, 0.68940412998199463, 0.4133199155330658, 0.51288366317749023, -0.166657954454422, 0.86472970247268677, };
const MODEL_SECTION(EI_MODEL_SECTION) ALIGN(16) float tensor_data16[51] = { -0.3033788800239563, -0.036678135395050049, -0.33343321084976196, -0.13238811492919922, -0.2920987606048584, 0.32960757613182068, -0.019761189818382263, -0.1864590048789978, 2.1664679050445557, 1.5648682117462158, 0.30819565057754517, 0.52625948190689087, -0.14399562776088715, -0.26355773210525513, 0.57964688539505005, -0.46899837255477905, -0.077843219041824341, 0.053122341632843018, 1.089410662651062, 0.067580163478851318, -0.19205111265182495, 0.46023756265640259, -0.27639991044998169, 1.5020483732223511, -0.3817937970161438, 0.068412482738494873, -0.95956867933273315, -0.26620021462440491, -0.62359088659286499, 0.79272973537445068, 0.20465376973152161, 0.036335207521915436, 0.088323473930358887, -0.17270302772521973, 0.76237607002258301, 0.30570483207702637, 0.25740393996238708, 0.03705933690071106, -0.046257615089416504, -0.2896755039691925, -0.12350368499755859, 0.47728943824768066, -0.25132733583450317, -0.40955540537834167, 0.17958584427833557, 0.59265989065170288, -0.20302349328994751, 0.37770101428031921, -0.0063733458518981934, 1.7167296409606934, -0.40538769960403442, };
const MODEL_SECTION(EI_MODEL_SECTION) ALIGN(16) float tensor_data17[51] = { -0.19867376983165741, 0.73991775512695312, 0.30048441886901855, 0.058296702802181244, -0.39709985256195068, 0.44368723034858704, 0.18607756495475769, 0.41493180394172668, 0.14193399250507355, -0.11680084466934204, 0.023549288511276245, 0.55263775587081909, 0.21708199381828308, 2.3581027984619141, 0.16210326552391052, 0.67283743619918823, 0.78128015995025635, -0.35829818248748779, -0.21454536914825439, 0.088398821651935577, 0.30612155795097351, -0.08748316764831543, 0.71338725090026855, 1.4769841432571411, -0.43569543957710266, 0.48741436004638672, 0.94053661823272705, 0.33608195185661316, 0.40877676010131836, 1.0406061410903931, 0.89062875509262085, 0.33822685480117798, 1.256380558013916, 0.51790672540664673, -0.088681608438491821, -0.14255450665950775, -0.14190606772899628, 0.84805512428283691, 0.53900736570358276, -1.3631787300109863, -0.23473791778087616, 0.76051187515258789, 0.54325175285339355, 0.55296051502227783, 0.3922845721244812, 1.8097851276397705, -0.03648984432220459, 0.041554391384124756, 0.74575150012969971, -1.4106518030166626, -0.42343354225158691, };
const MODEL_SECTION(EI_MODEL_SECTION) ALIGN(16) float tensor_data18[51] = { 0.019006550312042236, 0.91393864154815674, -0.059616055339574814, -0.18853351473808289, -0.092400744557380676, -0.19219321012496948, 0.88912284374237061, -0.26263648271560669, -0.07615324854850769, -0.46391087770462036, 0.50827544927597046, 0.70571118593215942, 1.5170595645904541, -0.57417213916778564, 0.322501540184021, -1.0832865238189697, -0.24053080379962921, -0.52424466609954834, 0.37481144070625305, -0.33359545469284058, 1.8995859622955322, -1.0855498313903809, -0.37506788969039917, -0.44755673408508301, 0.77821052074432373, 0.49961325526237488, -0.76396578550338745, 1.4016258716583252, -0.25608709454536438, -0.30760785937309265, 0.83310145139694214, 0.68882161378860474, 0.024308979511260986, 0.37630149722099304, 0.1282980889081955, -0.12704126536846161, -0.12276554107666016, 0.6769641637802124, -0.32561010122299194, 0.92061066627502441, -0.16460724174976349, 0.10719610750675201, -1.3015409708023071, 0.15942144393920898, 1.6721893548965454, -0.39535215497016907, -0.6194273829460144, 0.38147604465484619, -1.4510066509246826, -1.5513134002685547, -0.38888111710548401, };
const MODEL_SECTION(EI_MODEL_SECTION) ALIGN(16) float tensor_data19[51] = { 0.4756506085395813, 0.479827880859375, -0.1655866950750351, 0.80184465646743774, 1.2048476934432983, 0.71029460430145264, 0.85296809673309326, -0.25861194729804993, 0.096289247274398804, 0.68046808242797852, -0.3402668833732605, 1.1920328140258789, 0.47838699817657471, 0.63349443674087524, 0.95373821258544922, -0.44313716888427734, 1.4945476055145264, 0.34955316781997681, 0.69629806280136108, -0.44193297624588013, 0.11335139721632004, -1.30027174949646, -0.94790178537368774, -1.1254650354385376, 0.54109370708465576, -0.47095271944999695, 0.5852741003036499, 1.6924895048141479, 1.3837076425552368, 0.804543137550354, -0.31604507565498352, 0.32946637272834778, 1.1244052648544312, 0.54277992248535156, 3.2608978748321533, 0.47542619705200195, -0.30159857869148254, 0.062509238719940186, 1.3700467348098755, 0.34166330099105835, 0.32565963268280029, 1.0732207298278809, 0.49325728416442871, 0.0062146782875061035, 1.1542209386825562, 0.23933079838752747, 0.72290873527526855, -0.10085411369800568, 0.71547144651412964, 1.0777736902236938, -0.33174708485603333, };
const MODEL_SECTION(EI_MODEL_SECTION) ALIGN(16) float tensor_data20[51] = { -1.1894659996032715, 1.1308008432388306, 0.32757577300071716, -0.6263042688369751, 0.5197899341583252, -0.34983691573143005, -0.049920082092285156, -0.803924560546875, 0.75263315439224243, 2.201791524887085, -0.34758514165878296, -0.47220736742019653, 0.10924786329269409, 1.9423106908798218, -0.0026096589863300323, -0.34836044907569885, -0.34235179424285889, 1.3882445096969604, -0.075163900852203369, -0.062549114227294922, 1.8988367319107056, 0.42982545495033264, 0.18012985587120056, -0.24821121990680695, 0.42258730530738831, 0.50434303283691406, -0.60031807422637939, -0.22593033313751221, -0.29751378297805786, -1.082788348197937, 0.15091228485107422, 1.2801679372787476, -1.102425217628479, -0.077082991600036621, -0.55131107568740845, -0.32908806204795837, 0.38882184028625488, -0.34624919295310974, -0.11403921246528625, 0.017078578472137451, -1.2366697788238525, 0.1786690354347229, 0.42557188868522644, -0.83485746383666992, -0.85158181190490723, -0.65460735559463501, -0.17618967592716217, 0.081765681505203247, -1.2986907958984375, 0.34522584080696106, -0.7235034704208374, };
const MODEL_SECTION(EI_MODEL_SECTION) ALIGN(16) float tensor_data21[51] = { -0.59269815683364868, 2.4272778034210205, -0.82709908485412598, 0.78890120983123779, 1.776642918586731, 0.53387272357940674, 0.93324494361877441, 0.3652547299861908, 0.30918309092521667, -0.27330219745635986, 1.4259114265441895, 1.1260044574737549, 1.2249857187271118, 0.74520540237426758, 1.8937078714370728, 0.23756420612335205, 0.74974954128265381, 0.27013522386550903, 1.2761756181716919, 0.85164105892181396, 0.45036232471466064, 1.0487946271896362, -0.78974109888076782, -1.4715898036956787, 0.48291158676147461, 1.3236536979675293, -0.63505470752716064, 0.0050795227289199829, 1.3365445137023926, 0.86839842796325684, 0.91183763742446899, -0.20751586556434631, -1.0150699615478516, 0.35606133937835693, 1.1763139963150024, 0.14831212162971497, 1.2846463918685913, 0.27545952796936035, -0.59917294979095459, 0.66187715530395508, -0.028835207223892212, 2.2783069610595703, -0.77701729536056519, 0.47896987199783325, -0.37437999248504639, 0.096895575523376465, 0.24308356642723083, -0.1598682701587677, 0.021316647529602051, 2.9492805004119873, 0.25153559446334839, };
const MODEL_SECTION(EI_MODEL_SECTION) ALIGN(16) float tensor_data22[51] = { 0.036525800824165344, 0.036414463073015213, -0.66762024164199829, -0.2157859206199646, 1.3473620414733887, 0.88675469160079956, -1.004790186882019, -0.13834863901138306, -0.81321346759796143, -0.10697638988494873, -0.16538332402706146, 0.012769967317581177, -0.16930398344993591, 0.88246071338653564, -0.30233332514762878, 0.05599859356880188, -0.13615375757217407, -0.080724388360977173, -0.8286176323890686, -0.58331507444381714, -0.94106042385101318, 0.5336911678314209, -0.19326213002204895, -0.019618183374404907, -0.16375327110290527, -0.16866716742515564, -1.1838192939758301, -0.071134030818939209, 0.41164880990982056, 1.9498441219329834, -0.96292281150817871, -0.1916358470916748, -1.1808607578277588, -0.69996470212936401, -0.67414397001266479, -0.74725353717803955, -0.44432219862937927, -0.85745221376419067, 1.1526055335998535, -0.7596888542175293, -0.080138824880123138, 0.010418057441711426, -0.44830536842346191, -0.16887664794921875, 0.87710666656494141, 0.93791437149047852, -1.2676639556884766, -0.7829127311706543, -0.66388058662414551, -0.70948851108551025, -0.55842697620391846, };
const MODEL_SECTION(EI_MODEL_SECTION) ALIGN(16) float tensor_data23[51] = { 1.4136719703674316, 0.38037568330764771, 0.1611720472574234, 1.0445669889450073, 0.93673276901245117, -0.67293941974639893, -0.52174365520477295, 0.77284741401672363, 0.33388447761535645, 0.75361090898513794, -0.50872254371643066, 0.77665269374847412, 0.7857128381729126, -0.69521677494049072, 0.92079555988311768, -0.47715717554092407, 0.58229458332061768, 1.5236254930496216, 0.78658509254455566, 1.0704383850097656, 0.56834268569946289, -1.0931316614151001, -0.23279047012329102, 0.05778995156288147, 0.13716694712638855, -0.5548056960105896, 1.2394001483917236, 0.59440809488296509, 0.22289308905601501, 0.99770903587341309, 0.49264705181121826, -0.20057949423789978, 0.37125313282012939, -0.83320599794387817, 1.015566349029541, 2.8448007106781006, -0.79398751258850098, 1.0676956176757812, 1.008770227432251, -0.6661146879196167, 0.22885763645172119, 0.71793270111083984, 1.187659740447998, 0.082178652286529541, -0.3240312933921814, -1.2570986747741699, -1.2832580804824829, 1.1142392158508301, 0.77193665504455566, 1.2114036083221436, 0.4587421715259552, };
const MODEL_SECTION(EI_MODEL_SECTION) ALIGN(16) float tensor_data24[51] = { -0.71736562252044678, 1.691999077796936, -0.021073460578918457, 4.0722222328186035, -0.65245747566223145, 0.13795745372772217, 0.85638976097106934, 1.5153548717498779, -0.40961158275604248, 2.9853425025939941, -0.38511344790458679, 5.2734413146972656, -0.3138001561164856, -1.3273847103118896, 0.83441627025604248, -0.039477169513702393, 1.3038666248321533, 1.8908858299255371, -0.292205810546875, 3.7821712493896484, -0.32075929641723633, -0.43951874971389771, -0.039180874824523926, -1.1473186016082764, -0.077626138925552368, 1.5557162761688232, 3.8119668960571289, -0.68918740749359131, 2.1693408489227295, -2.5989115238189697, 2.8047492504119873, 0.071850061416625977, -0.83586114645004272, -1.2910308837890625, 2.0895133018493652, -0.78265833854675293, 0.94064241647720337, 2.0532646179199219, -2.8040714263916016, -0.25940769910812378, 0.56297332048416138, -1.5032637119293213, -1.2477126121520996, 2.7064502239227295, 2.1473045349121094, -0.33639121055603027, 0.79367560148239136, 6.8306689262390137, -0.047723621129989624, -0.68535125255584717, 2.6205918788909912, };
const MODEL_SECTION(EI_MODEL_SECTION) ALIGN(16) float tensor_data25[102] = { 0.072201848030090332, -0.68910610675811768, -0.74779552221298218, 1.1502093076705933, -0.12926015257835388, -0.69042509794235229, 1.2523214817047119, -1.1972670555114746, 0.73650622367858887, 0.39120373129844666, -0.64860630035400391, 1.1793304681777954, 0.70409709215164185, -0.24854305386543274, 1.8412398099899292, -0.54228866100311279, -2.3998634815216064, -1.0610918998718262, 0.85427546501159668, 0.39088687300682068, 1.018339991569519, 0.90392696857452393, -0.021778494119644165, -0.14545519649982452, 0.74681204557418823, 1.5505377054214478, 0.64180207252502441, 0.22774924337863922, 0.21253149211406708, -0.65076583623886108, 1.1703007221221924, -0.28171449899673462, -0.044135570526123047, 0.99490201473236084, -1.0715553760528564, 1.5784345865249634, -0.96280956268310547, -0.044005930423736572, -0.84439516067504883, 0.14527571201324463, 0.45952537655830383, -0.56288325786590576, -0.46058034896850586, -0.95382916927337646, -0.46978577971458435, -0.79439079761505127, 0.67214643955230713, 1.2988402843475342, 0.60980170965194702, -0.03573906421661377, 0.52545285224914551, 0.25785216689109802, 1.2540862560272217, 1.3536397218704224, 1.9965391159057617, -0.60079026222229004, -0.65081262588500977, 0.55891507863998413, 0.3599638044834137, 0.65569555759429932, 1.6722426414489746, -0.58764231204986572, -0.75484001636505127, -1.2951087951660156, 0.0087747424840927124, -2.159804105758667, -1.6347963809967041, 0.29444754123687744, -1.0897067785263062, -0.46471977233886719, 0.7503277063369751, 0.75112283229827881, -0.15675544738769531, -0.45865368843078613, -0.54687029123306274, -1.2968622446060181, 0.41032075881958008, -0.072177529335021973, -0.3802681565284729, -0.020705878734588623, -1.4141764640808105, 0.10580854862928391, -0.18277737498283386, 0.16312243044376373, -0.19881458580493927, -2.3079895973205566, 0.23264724016189575, -0.0064502507448196411, 0.68176692724227905, 0.039103418588638306, 1.7160987854003906, 0.73519730567932129, 0.61609435081481934, 0.29114687442779541, -0.041693627834320068, 0.33312761783599854, 0.46703115105628967, -0.132791668176651, 0.07068653404712677, 0.053281225264072418, 1.2242195606231689, -0.28685438632965088, };
const TfArray<1, int> tensor_dimension25 = { 1, { 102 } };
const MODEL_SECTION(EI_MODEL_SECTION) ALIGN(16) float tensor_data26[102] = { 0.33831369876861572, -0.35717195272445679, -0.13039574027061462, 3.6645760536193848, -0.76086550951004028, -0.89545261859893799, 2.4140980243682861, 1.936901330947876, 0.13797146081924438, -0.14444723725318909, 0.024079024791717529, 3.1134400367736816, -0.48655650019645691, -0.8405652642250061, -1.187985897064209, -0.80567622184753418, -0.15090984106063843, -1.0388215780258179, 2.2180659770965576, -0.64457201957702637, -0.029872655868530273, -0.017778992652893066, 0.050792992115020752, -0.93671584129333496, 3.3269212245941162, 1.2665301561355591, -0.57993698120117188, 4.6751747131347656, 0.29844889044761658, 1.563538670539856, -0.01989389955997467, -0.33613547682762146, -0.99912428855895996, 0.018210291862487793, -0.8707735538482666, 0.28989589214324951, 1.0966070890426636, -0.28111371397972107, -0.56895327568054199, -0.30628976225852966, -0.056097418069839478, -0.44020766019821167, -1.1150301694869995, -0.99748235940933228, 2.1601989269256592, -0.30692607164382935, 1.6020681858062744, 0.20380344986915588, 1.4918971061706543, -0.52120053768157959, -0.42574590444564819, 1.3176761865615845, 0.010948393493890762, 0.1092875599861145, -0.26642096042633057, -0.13430500030517578, -0.51944434642791748, 2.3938543796539307, 1.9295907020568848, -0.2067473828792572, 0.15919148921966553, 0.30118924379348755, -0.85500311851501465, 1.391901969909668, -0.085631370544433594, 0.13510920107364655, 2.6132092475891113, 0.32847654819488525, -0.95002841949462891, -0.51383209228515625, -0.48970878124237061, 1.7243423461914062, -0.1163448691368103, -0.89424353837966919, -0.75293481349945068, -0.13619062304496765, -0.076936587691307068, -0.63638937473297119, 0.0074423849582672119, 0.10198742151260376, 1.7209242582321167, -0.44125044345855713, -1.0045937299728394, 0.51517122983932495, -1.122236967086792, -1.1895095109939575, -0.31410837173461914, -0.074761942028999329, -0.29832673072814941, 0.52269101142883301, -0.014971733093261719, 0.0039234757423400879, -0.21352905035018921, -0.010999560356140137, 0.83647477626800537, -0.015135705471038818, 1.3833413124084473, -0.90551793575286865, 0.66261494159698486, -1.0149765014648438, 0.33436143398284912, -1.0622552633285522, };
const MODEL_SECTION(EI_MODEL_SECTION) ALIGN(16) float tensor_data27[102] = { -0.022143065929412842, -0.011875063180923462, 0.075283974409103394, -0.00079649686813354492, 0.095895230770111084, -0.021240264177322388, 0.003474503755569458, -0.32948988676071167, -0.037879854440689087, 0.010875910520553589, 0.10992011427879333, 0.015465840697288513, -0.025137782096862793, -0.01912042498588562, 0.02712211012840271, -0.032121211290359497, 0.10965996980667114, 0.012103170156478882, 0.070167690515518188, 0.0020611286163330078, -0.025247886776924133, -0.016177833080291748, -0.19914491474628448, -0.067488163709640503, 0.057664692401885986, 0.00289955735206604, 0.06022295355796814, 0.067669719457626343, -0.011276125907897949, -0.18932384252548218, 0.039022296667098999, 0.013087421655654907, 0.032100945711135864, 0.072935700416564941, 0.0049027800559997559, 0.0033531785011291504, -0.0156421959400177, 0.068450719118118286, 0.011523813009262085, -0.05502021312713623, 0.025808095932006836, -0.024749904870986938, -0.080213993787765503, -0.045350834727287292, 0.022801011800765991, -0.022609680891036987, 0.062654078006744385, -0.23734971880912781, -0.03837662935256958, 0.094292700290679932, -0.018762469291687012, -0.27384462952613831, 0.1015065610408783, 0.026390224695205688, 0.082756072282791138, 0.029122978448867798, -0.4216403067111969, 0.02390587329864502, -0.029079437255859375, -0.03864094614982605, 0.018336385488510132, -0.023473888635635376, 0.034539699554443359, -0.071178615093231201, -0.096674844622612, -0.034116476774215698, -0.024860382080078125, -0.0012049376964569092, 0.017364770174026489, -0.017113685607910156, -0.034462645649909973, -0.011356085538864136, 0.015406936407089233, -0.0060138702392578125, 0.065166473388671875, -0.018057435750961304, 0.062529385089874268, 0.0086757838726043701, -0.014137893915176392, 0.022633820772171021, 0.036608874797821045, 0.069056570529937744, 0.022517919540405273, -0.0076301991939544678, 0.10843795537948608, -0.20802783966064453, 0.0068180859088897705, 0.0036739110946655273, -0.0037531554698944092, -0.30950033664703369, 0.020762979984283447, 0.0090431869029998779, 0.042390227317810059, 0.091266632080078125, 0.064025908708572388, 0.049201011657714844, 0.0222129225730896, 0.081325560808181763, -0.007193148136138916, -0.016567349433898926, -0.24628949165344238, -0.0523814857006073, };
const MODEL_SECTION(EI_MODEL_SECTION) ALIGN(16) float tensor_data28[1*3*3*3] = { 
  /* [0][0][][] */ 1.3926347494125366,-2.5073046684265137,0.63668417930603027, 0.56002551317214966,0.065544076263904572,-0.15554355084896088, 0.15232059359550476,-0.041735894978046417,-0.048469163477420807, 
  /* [0][1][][] */ 7.2422771453857422,-1.1890047788619995,0.50202059745788574, 1.9078047275543213,-1.1010539531707764,0.1521996408700943, 0.0035535369534045458,-0.066587641835212708,-0.026207160204648972, 
  /* [0][2][][] */ 5.8270053863525391,4.4416646957397461,-0.15161368250846863, 1.8056656122207642,1.2677986621856689,0.60342460870742798, 0.25476104021072388,-0.16349026560783386,-0.072498589754104614, 
};
const TfArray<4, int> tensor_dimension28 = { 4, { 1,3,3,3 } };
const MODEL_SECTION(EI_MODEL_SECTION) ALIGN(16) float tensor_data29[1*3*3*6] = { 
  /* [0][0][][] */ -0.5336763858795166,-1.0720081329345703,-0.025895107537508011,0.21228155493736267,0.23085670173168182,-0.0079004745930433273, -0.091558262705802917,-1.8934954404830933,0.32275673747062683,-0.20416603982448578,-0.24436575174331665,0.30784443020820618, -0.1058163121342659,-0.7493436336517334,0.17230711877346039,0.14988555014133453,-0.16769661009311676,0.071065738797187805, 
  /* [0][1][][] */ -0.44080430269241333,0.20025801658630371,0.14536891877651215,0.58856749534606934,0.23927731812000275,0.48678818345069885, -0.13915161788463593,-0.030341440811753273,0.069338001310825348,-0.087912760674953461,0.55573958158493042,0.43641743063926697, -0.050621703267097473,-0.019816836342215538,0.1666383296251297,0.013570812530815601,0.10975600033998489,0.04693230614066124, 
  /* [0][2][][] */ -0.12733691930770874,0.98307782411575317,-0.13664577901363373,0.54953891038894653,0.40718874335289001,0.5053098201751709, -0.060529559850692749,1.6690351963043213,-0.46529126167297363,0.013988538645207882,0.4895080029964447,0.17419832944869995, -0.05022425577044487,0.72495388984680176,-0.30667400360107422,-0.018900688737630844,0.38662165403366089,0.0053742905147373676, 
};
const TfArray<4, int> tensor_dimension29 = { 4, { 1,3,3,6 } };
const MODEL_SECTION(EI_MODEL_SECTION) ALIGN(16) float tensor_data30[1*3*3*12] = { 
  /* [0][0][][] */ -0.076550766825675964,-0.22784976661205292,-0.90714097023010254,-0.043730761855840683,0.0068986206315457821,-0.052754130214452744,1.96338951587677,0.20109057426452637,-0.48016583919525146,0.019961195066571236,0.10244664549827576,-0.78633970022201538, -1.266236424446106,0.16293215751647949,-0.86321467161178589,-0.18729054927825928,2.1195940971374512,-0.44957858324050903,-2.7364253997802734,0.013542096130549908,-0.25782105326652527,1.0539290904998779,-1.1566375494003296,-0.95897382497787476, 0.49153485894203186,0.43157491087913513,0.48248699307441711,0.18602129817008972,-0.10488250851631165,0.84237033128738403,-0.23750467598438263,0.097607210278511047,-0.21697339415550232,-0.31704327464103699,0.56792747974395752,-0.53631716966629028, 
  /* [0][1][][] */ 0.90565907955169678,-0.16661049425601959,0.89636313915252686,-0.42476651072502136,0.85578173398971558,0.91330850124359131,-2.9095404148101807,-0.56204134225845337,-1.6913211345672607,-0.2313762754201889,0.27238905429840088,0.65686714649200439, 0.53095448017120361,1.5572695732116699,2.1684708595275879,-0.84167760610580444,0.68456876277923584,-0.92564153671264648,-0.17336776852607727,-0.67396491765975952,1.3722741603851318,0.63437515497207642,-0.45721599459648132,3.0123345851898193, -0.20404800772666931,0.21837781369686127,1.1409323215484619,-0.057495955377817154,0.22098754346370697,1.7707059383392334,2.6523301601409912,-0.39755368232727051,-0.12929490208625793,-0.070797674357891083,-0.15737251937389374,0.68809497356414795, 
  /* [0][2][][] */ 0.23343129456043243,-0.12589515745639801,-0.088677696883678436,0.034146718680858612,0.19730411469936371,-0.11224716901779175,-1.0280249118804932,-0.27777129411697388,1.5679861307144165,0.068489581346511841,-0.13650567829608917,-0.42905408143997192, 0.83769792318344116,1.9548996686935425,-1.4239757061004639,-0.39057648181915283,0.77678626775741577,-0.31162106990814209,2.9838864803314209,-0.36255139112472534,-1.9579012393951416,-0.54318255186080933,0.39709675312042236,1.451179027557373, -0.20319481194019318,-0.98107224702835083,-1.5623800754547119,-0.23125931620597839,-0.33872330188751221,-0.13407532870769501,-0.71655052900314331,-0.047896426171064377,-0.33285430073738098,0.26776030659675598,-0.19058872759342194,-0.53134864568710327, 
};
const TfArray<4, int> tensor_dimension30 = { 4, { 1,3,3,12 } };
const MODEL_SECTION(EI_MODEL_SECTION) ALIGN(16) float tensor_data31[1*3*3*12] = { 
  /* [0][0][][] */ 0.40958794951438904,-0.40014117956161499,0.16390620172023773,-0.3469909131526947,0.24004222452640533,-0.8864743709564209,0.42509222030639648,0.14936800301074982,-0.14648956060409546,-0.74611002206802368,0.025950195267796516,0.17422762513160706, 0.79523766040802002,-0.26566630601882935,-0.1306627094745636,-0.21681736409664154,0.21933457255363464,0.94067740440368652,0.433391273021698,0.4782157838344574,-0.075357295572757721,-0.60705733299255371,-0.090528108179569244,0.14403641223907471, -0.49305647611618042,0.3792305588722229,0.080370493233203888,-0.067525878548622131,0.00011438471119618043,0.24844376742839813,0.19373850524425507,-0.97382223606109619,-0.039049793034791946,-0.024053916335105896,-0.034801378846168518,0.016084223985671997, 
  /* [0][1][][] */ 0.70344060659408569,-0.32333692908287048,0.32387292385101318,-0.53601610660552979,0.43070307374000549,-1.2936594486236572,0.11832159012556076,0.57341134548187256,-0.44957885146141052,-0.079338349401950836,-0.11218268424272537,0.34570997953414917, 0.92918789386749268,0.44398999214172363,-0.19247595965862274,-0.45086506009101868,0.39900782704353333,1.5635998249053955,0.14811956882476807,0.68274813890457153,-0.20216692984104156,0.26996311545372009,-0.21059522032737732,0.24513703584671021, -0.91864806413650513,0.59676170349121094,0.098507136106491089,-0.12281375378370285,0.10524170100688934,0.26074910163879395,-0.090616330504417419,-1.2758544683456421,-0.15185606479644775,0.24000033736228943,-0.050583157688379288,0.026296747848391533, 
  /* [0][2][][] */ 0.5583459734916687,0.079452686011791229,0.21876130998134613,-0.22240252792835236,0.26364001631736755,-0.76835364103317261,-0.27604097127914429,0.40695828199386597,-0.38114562630653381,0.84878146648406982,-0.13418282568454742,0.26968628168106079, 0.730857253074646,0.7582247257232666,-0.13148926198482513,-0.25011253356933594,0.25335988402366638,0.82240110635757446,-0.28646910190582275,0.18006566166877747,-0.086303606629371643,1.000957727432251,-0.1468031108379364,0.16171306371688843, -0.20747092366218567,0.40061268210411072,0.043139517307281494,-0.057847097516059875,0.096158541738986969,0.17596094310283661,-0.14596961438655853,-0.56653517484664917,-0.099718816578388214,0.22545130550861359,-0.042642213404178619,-0.0090324124321341515, 
};
const MODEL_SECTION(EI_MODEL_SECTION) ALIGN(16) float tensor_data32[1*3*3*25] = { 
  /* [0][0][][] */ 1.0517864227294922,-0.49591365456581116,-1.9835035800933838,-1.5396322011947632,-0.2675631046295166,-0.54020613431930542,-0.2077300101518631,0.12507978081703186,0.27481886744499207,2.161400318145752,1.4509470462799072,-2.5136673450469971,-0.63906478881835938,-0.46478819847106934,-0.10041665285825729,-0.63906848430633545,0.088871173560619354,0.68871873617172241,-0.4500068724155426,0.17088970541954041,0.93120282888412476,0.29134705662727356,-0.65877211093902588,-0.20450571179389954,-0.059552513062953949, 0.94921427965164185,1.3926984071731567,-1.5629745721817017,0.54989737272262573,1.4172292947769165,-0.84076225757598877,0.59218001365661621,-0.18430472910404205,0.30101838707923889,-1.5553469657897949,-0.65984690189361572,3.8099889755249023,-1.6502735614776611,-0.37610319256782532,-0.070531263947486877,-0.72224330902099609,1.3373289108276367,0.89620089530944824,-0.25348007678985596,0.8065531849861145,0.36752438545227051,0.63600856065750122,0.69136494398117065,0.087617434561252594,-0.67491799592971802, -0.58086222410202026,-0.30795896053314209,-0.30467686057090759,0.10779314488172531,-0.015973582863807678,-0.1779019683599472,-0.92178630828857422,0.066185049712657928,0.066538847982883453,-0.2123437225818634,0.0027603229973465204,-2.2619636058807373,-0.096537396311759949,0.23260250687599182,0.18064819276332855,-0.043809708207845688,-0.32964563369750977,0.2273683100938797,0.11888706684112549,0.048969730734825134,0.082852579653263092,0.43735954165458679,-0.20250837504863739,0.11646153032779694,-0.26135733723640442, 
  /* [0][1][][] */ 0.35183006525039673,0.16762328147888184,-0.40481320023536682,0.18761587142944336,0.31102088093757629,-0.48368680477142334,0.43768748641014099,1.0280014276504517,0.013550105504691601,-1.3443586826324463,0.84155601263046265,0.15748825669288635,-0.75982427597045898,0.70333957672119141,0.81313306093215942,-0.039119381457567215,-0.13696941733360291,-0.38197299838066101,0.94728761911392212,-0.09710828959941864,0.71669977903366089,-1.7381095886230469,1.4587922096252441,2.60823655128479,0.11872245371341705, -0.091666765511035919,-0.13961005210876465,-1.7263514995574951,0.0878605917096138,-0.3054477870464325,-0.59881395101547241,-0.86723440885543823,0.5209159255027771,0.90551507472991943,0.94366961717605591,-0.72190546989440918,-0.75376129150390625,-0.8133469820022583,-0.090111017227172852,0.037790536880493164,1.2551920413970947,0.3472369909286499,-0.768302321434021,0.36263516545295715,0.59236991405487061,-0.034110225737094879,1.2206637859344482,0.14335381984710693,-2.1119041442871094,-0.41783556342124939, 0.011556616052985191,0.089467950165271759,0.17163302004337311,0.33484911918640137,-0.086237050592899323,-0.082539364695549011,0.71966421604156494,0.1403382420539856,-0.13804337382316589,0.16886232793331146,-0.089987307786941528,0.49833980202674866,0.079404741525650024,-0.45130321383476257,-0.0025249072350561619,-0.045000836253166199,0.33947432041168213,-0.21513581275939941,0.016662094742059708,0.22217847406864166,0.08523847907781601,-0.4258294403553009,0.0048181945458054543,-0.34771707653999329,-0.2161552906036377, 
  /* [0][2][][] */ -0.25747120380401611,0.15752851963043213,0.011689323931932449,1.0565711259841919,-0.17785817384719849,-0.18020603060722351,-0.37579700350761414,-0.1854817122220993,-0.30081236362457275,-0.53492599725723267,-0.48488476872444153,0.28957590460777283,0.029387474060058594,0.5791240930557251,0.10615358501672745,-0.040948111563920975,0.1752239465713501,-0.17154020071029663,0.15743845701217651,-0.19153933227062225,-0.17177477478981018,-0.25245717167854309,1.4492806196212769,-0.011242479085922241,0.062915034592151642, -0.13804087042808533,0.011651335284113884,0.023123374208807945,-0.63030260801315308,-0.01369287446141243,-0.47492963075637817,-0.46875861287117004,-0.016726121306419373,-0.48907026648521423,0.40482717752456665,0.23331241309642792,-0.26666846871376038,-0.76302880048751831,0.85172140598297119,0.021331943571567535,0.60876530408859253,-0.37726509571075439,-0.32837224006652832,-0.023301105946302414,-0.8881499171257019,-0.032946418970823288,0.03213278204202652,-0.056198354810476303,0.31903031468391418,0.38112038373947144, -0.020421452820301056,0.084155797958374023,-0.76296037435531616,0.030152192339301109,0.093326881527900696,-0.0011010060552507639,0.66645878553390503,-0.073839753866195679,0.0058059776201844215,0.013016602024435997,0.013035105541348457,-0.053991846740245819,-0.18553861975669861,0.18859994411468506,-0.032602600753307343,0.34663808345794678,-0.19613522291183472,0.035695258527994156,0.098623104393482208,-0.22007131576538086,-0.19310322403907776,-0.07899831235408783,0.23424449563026428,0.037689853459596634,0.11612796783447266, 
};
const TfArray<4, int> tensor_dimension32 = { 4, { 1,3,3,25 } };
const MODEL_SECTION(EI_MODEL_SECTION) ALIGN(16) float tensor_data33[1*3*3*25] = { 
  /* [0][0][][] */ -0.087902136147022247,0.46352547407150269,-0.034048318862915039,0.14587098360061646,0.40610674023628235,0.56428921222686768,0.19798935949802399,-0.014415143057703972,0.62404334545135498,0.0024921658914536238,-0.19105228781700134,-0.4103052020072937,0.42355814576148987,-0.22883817553520203,0.34242349863052368,0.23170937597751617,0.29774925112724304,-0.41573649644851685,-0.14802460372447968,-0.29757225513458252,-1.2086271047592163,-2.6903839111328125,-0.13111498951911926,-0.37769398093223572,0.044778332114219666, -0.073160514235496521,0.30989241600036621,0.52867436408996582,-0.023843603208661079,0.43416449427604675,-0.10908820480108261,0.18327099084854126,0.035444997251033783,-0.083677232265472412,-0.013772055506706238,0.22514201700687408,-0.12042219191789627,0.28529024124145508,0.4246857762336731,-0.24009250104427338,0.15669704973697662,-0.083845198154449463,0.70188289880752563,0.11993337422609329,0.148382768034935,-0.042940866202116013,0.28502923250198364,-0.1157771572470665,-0.23058180510997772,-0.13315476477146149, 0.50258511304855347,-0.15577246248722076,0.46240288019180298,0.049704257398843765,0.1916365772485733,0.048641737550497055,0.025131896138191223,-0.10451666265726089,0.0074858386069536209,0.1473112553358078,-0.0042927367612719536,-0.079361982643604279,-0.1034020334482193,-0.0983433797955513,-0.031287632882595062,1.0418769121170044,0.010945823974907398,0.25388708710670471,-0.10934580117464066,0.38178643584251404,-0.043638844043016434,-0.47691163420677185,-0.26050558686256409,0.085060387849807739,-0.17490491271018982, 
  /* [0][1][][] */ 0.41881966590881348,1.6135729551315308,0.071416176855564117,0.72866040468215942,0.77273422479629517,1.0940572023391724,0.49439916014671326,0.075826287269592285,0.98771780729293823,-0.45103365182876587,-0.35432547330856323,-0.19003194570541382,0.64296269416809082,-0.44849449396133423,0.57893091440200806,0.19091203808784485,0.68877226114273071,-0.46985283493995667,0.48164793848991394,-0.14696657657623291,0.27675530314445496,-2.6280231475830078,-0.10499336570501328,-0.47393730282783508,1.5352898836135864, -0.06410554051399231,0.28039413690567017,0.58038395643234253,-0.25130367279052734,0.70876157283782959,-0.42871856689453125,0.18885846436023712,0.43235969543457031,-0.25714954733848572,0.0071463538333773613,-0.15975221991539001,0.25621047616004944,0.41968312859535217,0.58994001150131226,-0.24112433195114136,-0.039184998720884323,-0.193653404712677,0.51261162757873535,0.035891491919755936,0.085195071995258331,0.065936721861362457,0.81392842531204224,-0.18903195858001709,-0.49946308135986328,0.66779011487960815, 0.98044836521148682,-0.035201903432607651,0.64948868751525879,-0.057080764323472977,0.37991708517074585,0.0024584485217928886,-0.029331885278224945,0.48880162835121155,0.089816056191921234,1.0460121631622314,-0.037468388676643372,-0.17484033107757568,-0.048693932592868805,-0.11608460545539856,-0.03637271374464035,0.60895216464996338,0.0080338027328252792,-0.029577905312180519,-0.88743686676025391,0.24096715450286865,-0.12638582289218903,0.095563441514968872,-0.19413761794567108,0.1220129132270813,0.25694319605827332, 
  /* [0][2][][] */ 0.53228306770324707,1.0872272253036499,0.17797310650348663,0.74017095565795898,0.46831291913986206,0.64907217025756836,0.45388472080230713,0.16754250228404999,0.38018161058425903,-0.48530715703964233,-0.19530269503593445,1.64424729347229,0.27001193165779114,-0.40234681963920593,0.35877841711044312,0.11399692296981812,0.59016233682632446,-0.0663771852850914,0.38931438326835632,0.023608481511473656,1.4196572303771973,0.27066832780838013,-0.077890001237392426,-0.1673816591501236,-0.31715995073318481, -0.28214466571807861,0.30018222332000732,0.078378960490226746,-0.046796858310699463,0.39048087596893311,-0.2529636025428772,0.089877694845199585,0.21620211005210876,-0.18627376854419708,-0.14245818555355072,-0.60822862386703491,0.63759821653366089,0.28875559568405151,0.38706251978874207,-0.10913583636283875,-0.2154223769903183,-0.11673533916473389,0.18321208655834198,1.0225001573562622,-0.10211297124624252,0.31110259890556335,0.55130481719970703,-0.19168148934841156,-0.17960809171199799,-0.39605891704559326, 0.65821933746337891,-0.37800568342208862,0.3108924925327301,-0.030249673873186111,0.25229087471961975,-0.047677658498287201,-0.044202696532011032,0.054397739470005035,0.076886385679244995,0.57855665683746338,-0.10480622202157974,-0.029746184125542641,-0.020435880869626999,-0.056273523718118668,-0.0069575258530676365,-0.27399522066116333,0.0056935455650091171,-0.071558333933353424,0.74363112449645996,-0.11328151822090149,0.06961524486541748,-0.095338210463523865,-0.16767166554927826,0.067595943808555603,-0.18412575125694275, 
};
const MODEL_SECTION(EI_MODEL_SECTION) ALIGN(16) float tensor_data34[1*3*3*51] = { 
  /* [0][0][][] */ 0.15862150490283966,-0.3315790593624115,0.39503446221351624,-0.58403527736663818,0.14430269598960876,-0.22862356901168823,0.85599273443222046,0.32918217778205872,0.61146044731140137,0.52363783121109009,-0.34649467468261719,-1.3164790868759155,1.1099653244018555,0.42871573567390442,0.013521259650588036,0.17649343609809875,-0.3068530261516571,-0.14145784080028534,-0.029185699298977852,-0.25524455308914185,-0.56692987680435181,-0.12894743680953979,0.061354745179414749,-0.54333776235580444,1.4623486995697021,-0.16581065952777863,-1.1644390821456909,0.61560869216918945,-0.82684844732284546,0.14812786877155304,0.35942134261131287,0.37794205546379089,-0.11507481336593628,-0.5711401104927063,1.3816508054733276,1.0189359188079834,-0.36043089628219604,0.040965143591165543,2.636103630065918,2.1443259716033936,0.99026966094970703,0.65212756395339966,-0.0035138786770403385,-0.17333376407623291,0.25941041111946106,0.053889032453298569,0.16381855309009552,-1.0063183307647705,0.11571969091892242,-0.12277866154909134,-0.037350375205278397, -0.35016903281211853,-0.24075458943843842,1.0801090002059937,-0.60082322359085083,-0.29146260023117065,0.031695090234279633,0.70794206857681274,1.1812237501144409,0.16260294616222382,1.1963381767272949,-0.14915485680103302,-0.31525683403015137,0.44292718172073364,1.2753068208694458,-0.80695432424545288,0.59255969524383545,-0.44838422536849976,-0.23177379369735718,-0.46519631147384644,-0.1760791540145874,-0.49185168743133545,0.98091268539428711,1.6090800762176514,-0.87505847215652466,0.51874560117721558,0.32675701379776001,1.0935786962509155,-0.69652557373046875,-0.23817935585975647,-0.45482847094535828,0.2199859619140625,-0.26391318440437317,0.050051875412464142,-0.71406877040863037,-0.8614952564239502,-0.36538013815879822,-0.01598731055855751,1.6856601238250732,0.44091755151748657,-0.038070838898420334,0.08017122745513916,0.02773798443377018,-0.25807347893714905,-0.32666704058647156,0.60883486270904541,1.7467978000640869,-0.033706944435834885,-0.075280934572219849,-0.14420343935489655,0.21759539842605591,0.13812729716300964, 0.2360772043466568,0.0036487113684415817,-0.071668274700641632,0.23443153500556946,0.53598713874816895,0.0887937992811203,-1.3560227155685425,0.14481835067272186,-0.59753543138504028,-0.37369957566261292,0.52798008918762207,0.5863146185874939,-0.70714366436004639,-0.15879780054092407,0.82622402906417847,-0.21431410312652588,0.16059409081935883,0.20583702623844147,-0.086193107068538666,0.33875107765197754,-0.31038406491279602,1.4987211227416992,-0.23649543523788452,0.087452724575996399,-0.12905110418796539,0.15725971758365631,0.031404592096805573,-1.167082667350769,-0.4795515239238739,0.0045898919925093651,-0.46959921717643738,-0.98516756296157837,-0.14491736888885498,-0.35317292809486389,-0.055966906249523163,0.82331681251525879,0.010645123198628426,-0.15330362319946289,0.13575497269630432,-0.091843828558921814,-0.40364879369735718,0.006947644054889679,0.21504497528076172,-0.68376535177230835,0.89476388692855835,-0.061069495975971222,-0.24715270102024078,-0.39364433288574219,-0.14033122360706329,0.31786108016967773,-0.13003204762935638, 
  /* [0][1][][] */ -1.1753560304641724,-0.91440635919570923,0.12962740659713745,-0.56085759401321411,0.46877363324165344,1.9224796295166016,-1.276396632194519,-0.070842854678630829,1.1289824247360229,-0.12704825401306152,-0.30290153622627258,-0.34075137972831726,-0.91812330484390259,0.097894847393035889,0.17173974215984344,0.82831418514251709,-0.95419937372207642,1.4967794418334961,0.08555302768945694,-0.13463029265403748,1.3267930746078491,-0.29962795972824097,-0.23270434141159058,0.39183935523033142,-0.22654090821743011,-0.18227134644985199,-0.36234596371650696,-0.29390078783035278,2.3157124519348145,0.1304030567407608,-0.056487500667572021,-0.015251366421580315,-0.26859891414642334,-0.3928159773349762,-0.032080478966236115,-0.1637897789478302,-0.30722653865814209,-0.19198733568191528,0.19902627170085907,-0.0094720805063843727,-0.62301445007324219,-0.12443149834871292,0.36125326156616211,0.38840538263320923,1.1045818328857422,0.21731305122375488,-0.18505561351776123,-1.0129417181015015,-0.18120750784873962,-0.41165241599082947,-0.15873278677463531, -1.1471446752548218,0.93728876113891602,-0.29317209124565125,1.2096410989761353,1.4627727270126343,0.14777496457099915,-0.69296866655349731,-0.19589412212371826,-0.28471770882606506,0.44335812330245972,0.18068738281726837,-0.74383771419525146,-0.14177852869033813,-0.24755311012268066,1.1040581464767456,-0.4901050329208374,-0.98096740245819092,-0.35050177574157715,-0.33005225658416748,-0.34503188729286194,0.17983697354793549,0.15603464841842651,0.062814302742481232,0.096505396068096161,-0.028497148305177689,0.60661756992340088,-0.057719208300113678,0.30961787700653076,-0.057525213807821274,0.97076648473739624,0.35548904538154602,0.54516452550888062,0.88479888439178467,-0.22362886369228363,0.37427985668182373,-0.18033933639526367,-0.17210029065608978,-0.33274227380752563,0.5059659481048584,-0.24404241144657135,0.60296332836151123,-0.29314541816711426,-0.8264617919921875,0.75680708885192871,0.25929263234138489,0.57995808124542236,-0.19223551452159882,0.062122713774442673,-1.1037451028823853,-0.4611968994140625,1.6980515718460083, 0.043565671890974045,0.21171566843986511,-0.38606438040733337,0.47967943549156189,-0.47980713844299316,0.60528218746185303,-0.027432708069682121,0.10772881656885147,-0.47811084985733032,0.43364143371582031,-0.08925202488899231,0.051396753638982773,0.15169569849967957,-0.0024434421211481094,-0.66426360607147217,0.23164916038513184,0.12971530854701996,0.48905575275421143,-0.17332176864147186,0.72965478897094727,-0.46509197354316711,-0.50438928604125977,0.15651591122150421,-1.7286509275436401,-0.012158753350377083,0.091398380696773529,0.064085088670253754,1.307551383972168,-0.21889208257198334,-0.22287425398826599,-0.47182345390319824,-0.11464589089155197,-0.081156216561794281,0.19768765568733215,-0.25925305485725403,-0.16437919437885284,1.1551350355148315,-0.18420782685279846,-0.65229684114456177,-0.38700884580612183,-1.0024604797363281,-0.57330304384231567,0.96005147695541382,-0.30581885576248169,-0.531230628490448,0.032833252102136612,-0.036019414663314819,-0.13648506999015808,0.32087773084640503,0.76499336957931519,0.57601732015609741, 
  /* [0][2][][] */ 2.2753448486328125,-0.55865901708602905,-0.19716016948223114,0.63515478372573853,0.027554746717214584,-0.1090567409992218,1.0426993370056152,-0.16940328478813171,-0.21738532185554504,0.15772825479507446,-0.01226341538131237,-0.94235080480575562,0.0068057384341955185,-0.054106708616018295,0.030340440571308136,0.02947545237839222,0.88051354885101318,0.11100705713033676,-0.21422675251960754,-0.91277241706848145,-0.039892859756946564,-0.34905016422271729,-0.25365176796913147,0.64086061716079712,-0.12684546411037445,0.034601747989654541,-0.53056174516677856,0.14559611678123474,-0.10268894582986832,0.46067216992378235,1.0363106727600098,0.011606432497501373,-0.055870827287435532,-1.1130527257919312,-0.10102998465299606,0.33118906617164612,0.91572970151901245,0.28601005673408508,-0.58415669202804565,-0.80905246734619141,-0.3747941255569458,0.2546134889125824,0.27205899357795715,-0.2716987133026123,0.52289259433746338,-0.036403495818376541,0.77897453308105469,0.43639776110649109,0.46920466423034668,-0.45538979768753052,-0.31693896651268005, -0.079033434391021729,-0.23987182974815369,-0.0029310488607734442,-0.24882282316684723,-0.27510839700698853,0.011167707853019238,0.88872617483139038,-0.12134250998497009,-0.053268495947122574,-0.40795713663101196,0.00011980131966993213,-0.57093071937561035,-0.092344716191291809,-0.19160072505474091,0.25847688317298889,-0.10217293351888657,0.8437613844871521,0.2905418872833252,1.2640748023986816,1.0429896116256714,0.020877275615930557,-0.13060928881168365,-0.32835066318511963,0.4332135021686554,-0.0061871642246842384,0.20520353317260742,-0.034818954765796661,-0.64521944522857666,0.077437222003936768,0.60861843824386597,-0.39463797211647034,-0.16386738419532776,0.060899797827005386,0.5682787299156189,-0.21245233714580536,0.04657382145524025,0.57880657911300659,-0.1303989589214325,-0.55905085802078247,0.051168441772460938,-0.28524881601333618,0.6701311469078064,0.34283936023712158,0.23831185698509216,-0.029506176710128784,-0.31081956624984741,0.51004689931869507,0.12644502520561218,0.87551248073577881,0.18964412808418274,-0.034269746392965317, -0.41787633299827576,0.014113757759332657,-0.23591820895671844,-0.42442095279693604,0.040237780660390854,-0.14222389459609985,0.89030176401138306,-0.032666429877281189,-0.47375726699829102,1.4518206119537354,-0.019467644393444061,0.0079962257295846939,0.2817072868347168,-0.14043177664279938,0.18524618446826935,-0.17377720773220062,-0.62257987260818481,-0.10572375357151031,-0.15544506907463074,0.17080391943454742,0.27572807669639587,-0.29071095585823059,0.00085027056047692895,1.2489544153213501,0.15840353071689606,0.10325956344604492,0.18459329009056091,0.74777346849441528,-0.14128768444061279,-0.13304270803928375,-0.41484919190406799,0.081152737140655518,0.21262231469154358,0.11974083632230759,0.17511545121669769,0.14178009331226349,-0.20446160435676575,-0.18192020058631897,0.13243970274925232,-0.20728841423988342,2.0580744743347168,0.19897809624671936,-0.22422400116920471,0.55247354507446289,-0.25406020879745483,-0.018734967336058617,-0.26372978091239929,-0.066907614469528198,-0.20509932935237885,0.20884789526462555,0.050763163715600967, 
};
const TfArray<4, int> tensor_dimension34 = { 4, { 1,3,3,51 } };
const MODEL_SECTION(EI_MODEL_SECTION) ALIGN(16) float tensor_data35[1*3*3*51] = { 
  /* [0][0][][] */ 1.36348557472229,1.2405128479003906,-0.56229680776596069,-0.2140587717294693,0.2417881190776825,1.3276779651641846,-0.27489453554153442,0.98232018947601318,0.12657095491886139,-0.2450810968875885,0.33122071623802185,-1.0722354650497437,-0.48196661472320557,0.40441587567329407,-0.91351944208145142,0.061480611562728882,-0.63525986671447754,-0.4738028347492218,-1.2248612642288208,0.25137579441070557,-0.28055104613304138,-0.2243519127368927,0.071014426648616791,-0.33797580003738403,-0.41961658000946045,-1.123288631439209,0.018846064805984497,1.0099458694458008,0.18163929879665375,-0.32930225133895874,-0.92510199546813965,-0.44222721457481384,-0.16537623107433319,-0.71030342578887939,0.47296366095542908,0.96611225605010986,-0.26619476079940796,0.63735353946685791,-0.29920464754104614,0.018121860921382904,0.082777559757232666,0.77603143453598022,0.1449977308511734,-0.0069628320634365082,0.65198636054992676,-0.010365583002567291,0.4895072877407074,-0.064898476004600525,-0.57056742906570435,0.88637369871139526,-0.17326779663562775, -0.43286201357841492,-0.43578335642814636,1.1050785779953003,0.98068010807037354,-0.066195987164974213,-0.32339924573898315,-0.3739190399646759,0.75879746675491333,-0.41137915849685669,1.3695812225341797,-0.81044149398803711,-1.8665704727172852,0.80688583850860596,0.42563682794570923,-0.38623166084289551,-0.12947256863117218,1.7085390090942383,1.1679893732070923,0.92553877830505371,0.89191228151321411,-0.026093272492289543,-0.3031063973903656,1.1344393491744995,-0.59702402353286743,1.2027695178985596,0.99628806114196777,-0.17656862735748291,0.2470470666885376,0.051178939640522003,-0.074335262179374695,0.051784470677375793,1.1481611728668213,0.54889672994613647,0.33801922202110291,0.75611019134521484,0.13987687230110168,-0.13000330328941345,0.0015336527721956372,-0.23853893578052521,0.93143171072006226,1.1819547414779663,-0.37917053699493408,-0.074942164123058319,-0.22462530434131622,0.083304837346076965,-0.32886707782745361,0.071789838373661041,-0.2625887393951416,-0.1610724925994873,-0.29615271091461182,-0.594268798828125, -0.30246561765670776,-0.3042164146900177,0.43163520097732544,-0.1026475727558136,-0.17649276554584503,1.1628669500350952,-0.45250523090362549,0.46715742349624634,-1.6323634386062622,0.52571374177932739,0.79294705390930176,0.85926663875579834,0.41387194395065308,0.20231188833713531,-0.13661885261535645,-0.31456440687179565,-0.57530874013900757,0.65247291326522827,-0.75472623109817505,-0.39732620120048523,-0.18297357857227325,-0.032292876392602921,-0.16105172038078308,-0.6827734112739563,0.23090831935405731,-0.26514559984207153,0.64998412132263184,0.92324143648147583,0.067069485783576965,-0.85728716850280762,-0.48500934243202209,-0.49328362941741943,-0.12362848967313766,-0.14145991206169128,-0.59285438060760498,-0.076942086219787598,-0.28953015804290771,-0.37359523773193359,0.24315331876277924,0.44731706380844116,0.26215103268623352,-0.34760394692420959,-0.14016172289848328,0.39268985390663147,0.66891443729400635,0.043155193328857422,-0.085042975842952728,0.84602701663970947,1.118776798248291,-0.86039572954177856,-0.16679288446903229, 
  /* [0][1][][] */ -0.22905267775058746,0.38178929686546326,-0.14523355662822723,0.11758525669574738,-0.39503011107444763,-0.10671760886907578,-0.178127720952034,0.77886921167373657,-0.34348496794700623,-0.71025592088699341,0.60934996604919434,-0.092332236468791962,-0.4281877875328064,0.58381706476211548,0.35541447997093201,0.64894372224807739,-0.3144976794719696,-0.18663974106311798,-1.9686789512634277,-0.36302447319030762,-0.37311720848083496,0.31538879871368408,0.13827109336853027,-0.050899967551231384,-0.23650592565536499,-0.49161481857299805,0.51140403747558594,-1.5111531019210815,0.31713405251502991,-0.2956569492816925,-1.118965744972229,-0.34135901927947998,-0.38429507613182068,-0.083817295730113983,0.014224773272871971,-0.69957506656646729,0.54312705993652344,0.016362115740776062,0.27862191200256348,-0.1037251204252243,-0.24371726810932159,-0.33356580138206482,0.80353951454162598,0.43145674467086792,0.72646021842956543,-0.26042434573173523,0.52447229623794556,0.1337973028421402,-0.25506347417831421,0.63724356889724731,1.3613860607147217, 0.11195776611566544,0.2827279269695282,-0.04259277880191803,-0.073944948613643646,1.045868992805481,-0.22943584620952606,0.66776663064956665,-0.1471630334854126,-0.91762787103652954,-1.2333199977874756,0.65911984443664551,0.95726275444030762,0.43329188227653503,-0.42395696043968201,0.11300570517778397,0.43640726804733276,-0.53239119052886963,-0.69436824321746826,-1.2991112470626831,0.013168865814805031,-0.047693058848381042,-0.11061552911996841,-0.20695142447948456,-0.89972740411758423,-0.52460938692092896,-0.1282820850610733,0.74971449375152588,0.061372272670269012,-0.22641287744045258,-0.13263916969299316,-0.71479117870330811,-0.10999346524477005,-0.3420773446559906,-0.69788646697998047,-0.73118108510971069,-0.40111112594604492,0.42995268106460571,-0.42177653312683105,0.24549189209938049,0.027108648791909218,0.40122321248054504,0.34778043627738953,-0.12203113734722137,-0.517647385597229,-0.18770436942577362,-0.29804125428199768,0.26776710152626038,0.34196761250495911,0.35221487283706665,-0.77452653646469116,0.35061448812484741, -0.3655887246131897,-0.41295516490936279,-0.22759708762168884,-0.028572669252753258,-0.18183456361293793,0.57602769136428833,0.25911897420883179,-0.12030937522649765,0.39082211256027222,-0.67783331871032715,0.22997547686100006,-0.5928877592086792,0.67812913656234741,0.26489382982254028,-0.92114144563674927,-0.058005213737487793,0.59537655115127563,0.70035237073898315,-0.41345465183258057,-0.70012897253036499,-0.10701934248209,0.19109933078289032,-0.19378283619880676,-0.53048491477966309,-0.014283997006714344,2.0198531150817871,0.32020148634910583,0.90956711769104004,0.15866264700889587,0.79503613710403442,-0.4358178973197937,-0.16458393633365631,0.87200021743774414,1.3315051794052124,-0.83579963445663452,1.3616907596588135,0.43157607316970825,1.1855027675628662,0.90453839302062988,-0.24904300272464752,-0.49337747693061829,-0.43708530068397522,-0.124075748026371,-0.54211848974227905,-0.051790665835142136,-0.042536072432994843,0.051563438028097153,-0.4387049674987793,0.48152923583984375,-0.1541547030210495,-0.36488407850265503, 
  /* [0][2][][] */ -0.13474372029304504,-0.2659202516078949,-0.093698427081108093,-0.03646419569849968,0.49861440062522888,0.0094015337526798248,0.15172398090362549,-0.70427405834197998,-0.9883684515953064,-1.1313328742980957,-1.1533973217010498,-0.041863191872835159,0.52014178037643433,1.1130869388580322,-0.17347368597984314,0.97630995512008667,0.14566707611083984,-0.19570322334766388,-1.9937158823013306,-0.97998887300491333,-0.02842799574136734,0.33330926299095154,0.39406624436378479,0.10581344366073608,0.026206431910395622,0.82689392566680908,0.1412578672170639,-0.10427726060152054,0.014848174527287483,-0.042272236198186874,-0.15578655898571014,-0.035371590405702591,0.20133045315742493,-0.57752352952957153,0.014920558780431747,0.62029856443405151,-0.54646468162536621,-0.12823840975761414,-0.054264001548290253,0.22961549460887909,-0.2276913970708847,-0.049027618020772934,-0.23265695571899414,0.02619221992790699,-0.53450924158096313,-0.29997137188911438,0.29605522751808167,0.4908410906791687,-0.39617958664894104,-0.10829673707485199,0.48723602294921875, 0.049935344606637955,-0.11935119330883026,0.33432608842849731,-0.42203456163406372,0.13230875134468079,-0.10375335067510605,0.18013744056224823,-0.23537290096282959,0.064625158905982971,-0.045290973037481308,0.082685224711894989,0.17712429165840149,-0.19816012680530548,-0.32525181770324707,-0.38127335906028748,0.024677781388163567,-0.2459646612405777,-0.33302053809165955,-1.0281389951705933,0.2699928879737854,1.101701021194458,-0.24907757341861725,0.20031288266181946,0.3107437789440155,0.28972947597503662,-0.7196124792098999,0.75665944814682007,-0.087666116654872894,1.5053879022598267,-0.44186815619468689,1.1518899202346802,-0.0015741788083687425,0.029678892344236374,0.18650779128074646,0.42032486200332642,-0.11760484427213669,-0.067637667059898376,0.077409356832504272,0.11857264488935471,0.1034388467669487,0.13035081326961517,0.28724023699760437,0.13229352235794067,1.0908070802688599,-0.25498458743095398,0.56288999319076538,0.5134350061416626,-0.29264938831329346,-0.24716809391975403,-0.076094552874565125,0.3816637396812439, -0.29973128437995911,-0.29465806484222412,0.62570792436599731,0.093807324767112732,0.1661083847284317,-0.71192967891693115,0.20590648055076599,-0.072830788791179657,-0.26856967806816101,0.12214726954698563,-0.16469311714172363,-0.66958534717559814,-0.21712498366832733,-0.278146892786026,0.95245808362960815,0.44597163796424866,0.30110263824462891,0.11330050230026245,-0.30777886509895325,0.52895510196685791,-0.1909317821264267,-0.073522120714187622,0.11067134886980057,0.086554922163486481,-0.066206768155097961,-0.74204027652740479,0.098736435174942017,0.10502569377422333,-0.19765876233577728,0.15835586190223694,-0.43663763999938965,0.34507516026496887,0.40204435586929321,0.67355358600616455,0.21314708888530731,0.32604193687438965,0.50961399078369141,0.46615660190582275,-0.15037794411182404,0.030536560341715813,0.37321370840072632,0.49434676766395569,-0.28927689790725708,-1.1631239652633667,-0.12924616038799286,0.27090162038803101,-0.13652840256690979,-0.092966571450233459,-0.12534138560295105,-0.55756497383117676,0.98543345928192139, 
};
const MODEL_SECTION(EI_MODEL_SECTION) ALIGN(16) float tensor_data36[1*3*3*51] = { 
  /* [0][0][][] */ 0.28931164741516113,0.029641149565577507,0.19098089635372162,-0.051761846989393234,0.1863303929567337,-0.11584220081567764,-0.22256934642791748,0.016181072220206261,0.040312647819519043,-0.023952184244990349,-0.32188194990158081,1.1222370862960815,0.12221482396125793,-0.26284536719322205,1.2283698320388794,1.6118162870407104,-0.21837826073169708,-0.34975284337997437,-0.34189090132713318,-0.44156673550605774,-0.18789806962013245,0.21554920077323914,-0.047081153839826584,0.1017116904258728,0.10966319590806961,-0.42464563250541687,0.40877941250801086,-1.0309432744979858,1.1944433450698853,0.53626793622970581,1.1103572845458984,1.3815388679504395,-0.062926173210144043,0.031047314405441284,0.96173924207687378,-0.13275781273841858,-0.54403156042098999,0.31629317998886108,0.45182237029075623,0.41142600774765015,0.12011075019836426,-0.215626060962677,0.5581853985786438,-0.15049648284912109,-0.20239685475826263,-0.093869812786579132,-0.75811690092086792,0.51427662372589111,0.51749080419540405,-0.32010594010353088,-0.38948604464530945, 0.93729764223098755,-0.12958823144435883,-0.024115040898323059,-0.21240802109241486,0.090028703212738037,0.024364598095417023,0.075110018253326416,0.40362465381622314,-0.56801623106002808,0.45205682516098022,0.49481973052024841,0.30378293991088867,0.0018454556120559573,-0.43575781583786011,-0.031318638473749161,0.033531740307807922,1.1206667423248291,0.43102866411209106,0.7778124213218689,0.18218587338924408,-0.57687616348266602,0.28195124864578247,0.13109233975410461,0.44946438074111938,0.12003555148839951,1.1287037134170532,0.2761041522026062,-0.33449503779411316,0.63089299201965332,0.15851736068725586,-0.6778569221496582,-0.22758536040782928,0.39625641703605652,-0.30438801646232605,-0.57074975967407227,-0.50219035148620605,0.69240021705627441,-0.25311672687530518,0.33092674612998962,-0.2600376307964325,-0.75517922639846802,-0.08266332745552063,0.15047205984592438,-0.55504500865936279,-0.82832658290863037,-0.1570577472448349,0.91621774435043335,0.37951219081878662,-0.28440317511558533,-0.083970427513122559,1.2846876382827759, -0.16116978228092194,0.2160947322845459,-0.40013247728347778,0.37164306640625,-0.045142296701669693,-0.27772805094718933,-0.4451594352722168,-0.042678669095039368,0.70658302307128906,-0.59545928239822388,-0.77791064977645874,0.18741637468338013,0.02720176987349987,0.29408624768257141,0.6539759635925293,0.20900742709636688,-0.39877817034721375,0.50806134939193726,-0.51570779085159302,-0.026333371177315712,-0.28085017204284668,0.10518629848957062,0.44244661927223206,0.43376985192298889,-0.86506199836730957,0.72929376363754272,1.4311089515686035,-0.72909671068191528,0.55792593955993652,-0.32993248105049133,0.048815116286277771,0.22654080390930176,1.492423415184021,1.3522946834564209,-0.145869180560112,-0.17273791134357452,1.1802396774291992,-0.091104365885257721,0.049298506230115891,-0.46604824066162109,-0.22722692787647247,1.1248413324356079,0.44191160798072815,-0.40506714582443237,-0.48320290446281433,0.30480852723121643,0.065924681723117828,-0.2478925883769989,0.33502292633056641,0.052664872258901596,-0.43641141057014465, 
  /* [0][1][][] */ 0.49108514189720154,-0.18954929709434509,1.0075526237487793,-0.13792505860328674,-0.40181294083595276,-0.31184083223342896,0.43631830811500549,0.00024246238172054291,1.0548111200332642,0.028898967429995537,-0.77733069658279419,0.061051279306411743,-0.57315874099731445,0.3435901403427124,-0.046601824462413788,-0.15010035037994385,-0.32247322797775269,-0.17434029281139374,1.5755282640457153,-0.1004660576581955,-0.33695515990257263,0.61570835113525391,0.0058507127687335014,0.37248072028160095,-0.85004985332489014,-0.3312574028968811,0.78569597005844116,0.29256334900856018,0.36523008346557617,-0.19887402653694153,-0.33430859446525574,-0.55482327938079834,-0.064102828502655029,-0.58933144807815552,-0.60483354330062866,0.36035844683647156,0.45604053139686584,-0.13773706555366516,-0.2512010931968689,0.061281133443117142,-0.94800639152526855,-0.25355944037437439,0.48217496275901794,1.3630157709121704,0.13317602872848511,-0.24558550119400024,-0.014055041596293449,-0.30988243222236633,0.72410398721694946,0.64596265554428101,0.044757384806871414, 0.022966457530856133,-0.45325717329978943,-0.32448878884315491,-0.11455049365758896,-0.18991948664188385,-0.43112048506736755,-0.5903974175453186,0.99141883850097656,-0.046397604048252106,1.3757189512252808,0.18189841508865356,0.17388363182544708,-0.40890693664550781,0.69213145971298218,0.81923490762710571,0.62904632091522217,0.045368075370788574,0.36912718415260315,-0.42114478349685669,0.42582786083221436,-0.66910278797149658,0.23840515315532684,-0.6533781886100769,-0.61364704370498657,-0.76246517896652222,-0.23958607017993927,0.19198805093765259,-0.64368236064910889,-0.41776257753372192,0.64756870269775391,-0.34925073385238647,-0.97057998180389404,-0.084789752960205078,-0.17479471862316132,0.063172809779644012,0.95010113716125488,0.98412692546844482,-0.98104196786880493,-0.1577516496181488,-0.4004347026348114,0.44109845161437988,-1.38373863697052,0.072927035391330719,0.062890835106372833,-0.90678226947784424,0.36400023102760315,0.68536567687988281,1.0885810852050781,1.2261651754379272,-0.088979199528694153,-0.20002585649490356, -0.078513287007808685,1.304874062538147,-0.32921904325485229,0.30414298176765442,0.14529471099376678,-0.3841286301612854,0.97546213865280151,-0.3066871166229248,-0.037764966487884521,-0.14046414196491241,0.89085239171981812,1.3747584819793701,0.32076674699783325,0.036841548979282379,0.56097787618637085,-0.71451723575592041,0.36981835961341858,0.2991718053817749,0.99621129035949707,-0.18496683239936829,-0.16687706112861633,1.1746186017990112,0.58706676959991455,0.28656867146492004,0.98981696367263794,-1.0066725015640259,-0.21518982946872711,-0.27057188749313354,-0.16937726736068726,-0.33360651135444641,-0.36808669567108154,-0.16209270060062408,-0.33653441071510315,-0.13153950870037079,-0.18651461601257324,-0.30694001913070679,0.15668560564517975,0.3016340434551239,1.1208858489990234,-0.20992687344551086,0.94224804639816284,-1.4119075536727905,-0.067026391625404358,-0.47093367576599121,-0.39161211252212524,0.24777863919734955,0.69368898868560791,-0.31908249855041504,-0.29997545480728149,-0.38307404518127441,-0.34094661474227905, 
  /* [0][2][][] */ -0.067301079630851746,-0.48439481854438782,-0.072976633906364441,-0.25798317790031433,-0.59246832132339478,1.5916155576705933,0.012376939877867699,-0.19957157969474792,0.020165154710412025,-0.47933861613273621,-0.78676027059555054,-0.45516383647918701,-0.4956500232219696,-0.51449823379516602,-0.43279337882995605,0.11840224266052246,-0.097708314657211304,-0.13149861991405487,-0.71360296010971069,0.83325856924057007,0.51457971334457397,-0.41798332333564758,0.1074499785900116,-0.83411282300949097,-0.040564391762018204,-0.33344963192939758,0.031703945249319077,0.52376306056976318,-0.3313235342502594,-0.22487674653530121,-0.38953852653503418,-0.56552606821060181,-0.2179560512304306,1.1203485727310181,0.060689821839332581,0.78976213932037354,-0.50389856100082397,-0.15444007515907288,-0.40540000796318054,-0.34881353378295898,0.25831130146980286,-0.13013948500156403,0.15514123439788818,-0.052416440099477768,0.077582597732543945,-0.039732813835144043,0.45108577609062195,-1.0897233486175537,-0.031226197257637978,-1.36305832862854,0.25831663608551025, -0.068702906370162964,-0.44281676411628723,-0.28680813312530518,0.87493717670440674,-0.47034582495689392,0.41897961497306824,-0.49340328574180603,-0.071153305470943451,-0.053845886141061783,0.0016433583805337548,-0.5084388256072998,-1.0662717819213867,-0.89115327596664429,0.084090538322925568,-0.026378273963928223,-0.0077650700695812702,0.093606151640415192,0.31840234994888306,-0.36425280570983887,0.84721577167510986,-0.95974951982498169,0.28836685419082642,-0.20982739329338074,-0.24481534957885742,0.48263618350028992,-0.60108077526092529,0.0022016349248588085,-0.34949681162834167,-0.39527609944343567,0.32838433980941772,0.063799984753131866,0.22655659914016724,-0.14398881793022156,-0.43135091662406921,1.1257376670837402,0.016923043876886368,-0.19028997421264648,-0.15490050613880157,-0.072609275579452515,-0.20673632621765137,1.6739169359207153,2.0149922370910645,-0.024890640750527382,-0.22336268424987793,-0.77027195692062378,0.47918877005577087,0.018708154559135437,-0.70520621538162231,-0.18086065351963043,1.3646414279937744,-0.010782584547996521, -0.10803589969873428,-0.017945600673556328,-0.4715181291103363,0.015103689394891262,1.1719338893890381,-0.66273176670074463,0.035403970628976822,-0.18150867521762848,-0.28176507353782654,0.36972790956497192,-0.94583421945571899,-0.77108001708984375,-0.43234977126121521,0.66975349187850952,-0.053506452590227127,0.6030353307723999,-0.18771994113922119,0.38692262768745422,-0.15722163021564484,0.41268876194953918,0.39564955234527588,0.31784287095069885,0.59766638278961182,1.1580262184143066,1.4239127635955811,-0.90654247999191284,0.24583853781223297,-0.28866884112358093,-0.096225425601005554,-0.030280139297246933,-0.23982931673526764,0.57741004228591919,0.18659313023090363,-0.001751877716742456,-0.060758817940950394,0.024943891912698746,0.17929659783840179,1.048490047454834,-0.22637784481048584,-0.40792813897132874,-0.39724695682525635,-0.24972967803478241,-0.3244892954826355,-0.63486796617507935,-0.7725750207901001,0.245743528008461,0.017263125628232956,0.23900090157985687,0.75010985136032104,1.0526307821273804,-0.38215756416320801, 
};
const MODEL_SECTION(EI_MODEL_SECTION) ALIGN(16) float tensor_data37[1*3*3*51] = { 
  /* [0][0][][] */ 0.3781731128692627,0.11697076261043549,1.1838762760162354,1.0213514566421509,0.28070944547653198,-0.2913234531879425,0.27393710613250732,1.0987261533737183,-0.90906661748886108,-0.12831558287143707,-0.082566827535629272,-0.119113489985466,0.80360811948776245,1.2159813642501831,-0.24838598072528839,0.78894251585006714,-0.28303879499435425,1.2759045362472534,1.3496332168579102,-0.0096110496670007706,-0.45073264837265015,-0.15676766633987427,0.18287499248981476,0.065913848578929901,-0.23625431954860687,1.2262365818023682,0.18288567662239075,0.35841161012649536,0.00034130987478420138,0.12852862477302551,0.075423561036586761,0.88149160146713257,-0.2314162403345108,0.054094374179840088,-0.073447637259960175,-0.64330655336380005,-0.87185603380203247,-0.45521208643913269,-0.52727168798446655,-0.072542473673820496,-0.43342489004135132,0.47799533605575562,0.95209378004074097,-0.043259073048830032,1.0947242975234985,-0.47140973806381226,-0.13036529719829559,0.27587306499481201,-0.6321113109588623,0.39916005730628967,-0.57401883602142334, 0.31550106406211853,-0.39610451459884644,-0.23577104508876801,0.54620075225830078,0.34348109364509583,0.65391874313354492,-0.2489670068025589,0.19145725667476654,0.069501325488090515,-0.56807196140289307,-0.32843190431594849,-0.21401657164096832,0.12476708739995956,0.3065645694732666,-0.1549786776304245,-0.56593924760818481,0.21079203486442566,-1.244409441947937,0.55440151691436768,0.24591717123985291,-0.5076751708984375,-0.29246088862419128,-0.37329354882240295,-0.46702674031257629,-0.21709485352039337,-0.3865216076374054,1.1704356670379639,0.28113192319869995,-0.67766624689102173,0.07289065420627594,-0.24975903332233429,-0.45184120535850525,0.64211773872375488,0.47923344373703003,-0.078730419278144836,0.30152058601379395,0.71351969242095947,0.61731421947479248,-0.058118611574172974,0.35451078414916992,0.22026267647743225,0.80145961046218872,0.36485934257507324,0.1692463755607605,0.6520354151725769,0.42859005928039551,0.51801383495330811,-0.016499225050210953,1.6789952516555786,-0.51446670293807983,0.17141291499137878, 0.14717349410057068,-0.44459980726242065,-0.69530791044235229,0.01768871396780014,-0.20272785425186157,-0.52781331539154053,1.3485687971115112,-0.10477673262357712,-0.96919882297515869,-0.32346218824386597,0.04493299126625061,-0.32042673230171204,0.76774781942367554,1.083940863609314,0.39783203601837158,0.58568280935287476,1.1134724617004395,1.1536781787872314,-0.38872483372688293,0.57617682218551636,-0.33845046162605286,0.8574184775352478,-0.61270886659622192,-0.17888078093528748,-0.35500630736351013,-0.2166047990322113,0.59612894058227539,-0.070950739085674286,-0.12935595214366913,0.10941865295171738,0.11260434240102768,0.1102607324719429,0.60231494903564453,0.20482499897480011,0.054579116404056549,-0.085885375738143921,-0.89337301254272461,-0.71828162670135498,-0.17057216167449951,-0.15069033205509186,0.74342900514602661,0.50550282001495361,-0.6047481894493103,0.75801259279251099,0.31661534309387207,-0.16854971647262573,-0.13572391867637634,0.59970837831497192,-1.2383160591125488,-0.40289223194122314,0.072651572525501251, 
  /* [0][1][][] */ 0.30053046345710754,0.048561088740825653,0.29818999767303467,-0.18887229263782501,0.83922916650772095,0.19459612667560577,-0.37585318088531494,1.2723760604858398,1.3226943016052246,-0.055273085832595825,0.14608587324619293,0.16029839217662811,1.0447086095809937,0.99750882387161255,-0.43036532402038574,0.77291464805603027,1.2367327213287354,-1.2867259979248047,0.6822887659072876,0.034563940018415451,-0.37953945994377136,-0.10226722061634064,-0.044782780110836029,0.43991759419441223,-0.24251960217952728,0.40288907289505005,0.2647947371006012,-0.56257277727127075,0.69438958168029785,0.18547818064689636,0.74264949560165405,-0.71685433387756348,0.0011866549029946327,0.017702426761388779,-0.18775960803031921,0.45090788602828979,-0.5179869532585144,1.2337764501571655,-0.57329034805297852,0.68778175115585327,-0.6929658055305481,-0.22544796764850616,-0.076109439134597778,-0.81339412927627563,0.060047712177038193,0.27790719270706177,-0.24065211415290833,-0.28403174877166748,-0.28896602988243103,0.28951141238212585,-0.11002977192401886, -0.10408774763345718,-0.86965173482894897,-0.18111211061477661,0.43757039308547974,0.004516321700066328,0.70630180835723877,0.16993306577205658,-0.29506254196166992,1.0906469821929932,-0.47508260607719421,0.42947930097579956,0.073844492435455322,0.25315192341804504,-2.0930740833282471,-0.25623822212219238,0.063924744725227356,-0.067707866430282593,-0.87762784957885742,0.12287835031747818,0.80093652009963989,-0.46057948470115662,-0.17213453352451324,-0.046577572822570801,0.8313106894493103,0.074211083352565765,-0.36422330141067505,-0.12896811962127686,1.1631553173065186,0.10698478668928146,0.2346312403678894,-0.16752302646636963,-0.25499802827835083,0.88666164875030518,-0.048426959663629532,-0.20692326128482819,-0.48784470558166504,0.61320286989212036,-0.60581254959106445,-0.098844766616821289,0.4047638475894928,0.53487485647201538,-0.19761399924755096,0.071950472891330719,0.0040792357176542282,1.2795476913452148,0.79822522401809692,0.27714237570762634,0.48424944281578064,0.79176551103591919,0.18760630488395691,-0.26463869214057922, 0.25244280695915222,-0.12763646245002747,0.68035441637039185,0.24135501682758331,-0.32681962847709656,-0.74107909202575684,1.3360340595245361,0.21914301812648773,-0.1995246410369873,-0.11221113055944443,0.35062938928604126,-0.15350042283535004,-0.3027786910533905,-2.7416949272155762,0.53398358821868896,-0.3324725329875946,-0.36461994051933289,-0.81844997406005859,-0.35849341750144958,0.039467941969633102,-0.16809223592281342,0.031247509643435478,-0.43508011102676392,-0.21692012250423431,-0.20839190483093262,-0.46339878439903259,-0.20309154689311981,-0.23121553659439087,-0.13536934554576874,0.064770124852657318,-0.37171623110771179,-0.071022287011146545,0.10069680958986282,0.73231202363967896,0.29005202651023865,0.81898069381713867,-1.134573221206665,0.55851262807846069,0.81596827507019043,-0.49767109751701355,0.91370457410812378,-0.76266652345657349,-0.57519716024398804,0.71078431606292725,-0.099552981555461884,0.63662832975387573,-0.15895654261112213,0.38321530818939209,-1.3951069116592407,-0.45462015271186829,0.28107950091362, 
  /* [0][2][][] */ 0.99813228845596313,0.99753159284591675,-0.55388486385345459,0.1260145902633667,0.52512204647064209,-0.030972659587860107,-0.5064847469329834,-0.52186489105224609,-0.56121701002120972,-0.89101928472518921,-0.31955718994140625,1.3181358575820923,-0.58681505918502808,0.17828857898712158,0.80676811933517456,-0.25857275724411011,1.7942348718643188,-0.6334836483001709,-0.94723016023635864,-0.30595949292182922,0.22730755805969238,0.54331475496292114,0.74742895364761353,-0.59583741426467896,-0.38548740744590759,-0.73720282316207886,0.13558994233608246,-0.23026436567306519,1.2055364847183228,0.56487137079238892,-0.56893414258956909,-0.29481947422027588,0.092190630733966827,-0.75485503673553467,-0.2252081036567688,-0.035181839019060135,-0.10406068712472916,-1.3451801538467407,-1.3134293556213379,0.77479070425033569,0.054178580641746521,0.56634032726287842,-0.1336086094379425,1.1239227056503296,0.14862844347953796,-0.39887654781341553,1.0515948534011841,-0.16508385539054871,0.11965792626142502,0.68567728996276855,0.041058115661144257, -0.079575724899768829,-0.29806488752365112,-0.035467769950628281,-0.32661274075508118,-0.35225403308868408,-0.060755923390388489,-0.31750515103340149,0.70443117618560791,-0.77369982004165649,-0.31386494636535645,0.63748818635940552,0.23838475346565247,-0.29315349459648132,-0.436646968126297,-0.19536259770393372,-0.51820582151412964,-0.50934696197509766,-0.90098977088928223,-0.21497496962547302,-0.21596436202526093,-0.085431665182113647,0.10133777558803558,0.12144661694765091,0.71743547916412354,0.86273598670959473,0.5595632791519165,-0.19447973370552063,-0.15942142903804779,0.071096859872341156,1.0713082551956177,0.83681917190551758,-0.26138734817504883,0.4157261848449707,0.34372526407241821,-0.032995246350765228,-0.38812714815139771,-0.49933207035064697,1.7742054462432861,-0.13590678572654724,-0.20131738483905792,-0.16184762120246887,0.18324986100196838,-0.47933188080787659,0.64471447467803955,-0.63736975193023682,-0.078168094158172607,-0.30191117525100708,-0.23474965989589691,-0.39079016447067261,0.12405098974704742,0.20411950349807739, -0.15512192249298096,-0.78103679418563843,-0.4376983642578125,-0.17640815675258636,-0.53038316965103149,0.5954095721244812,-0.6594078540802002,0.36336991190910339,-0.51645666360855103,0.3446958065032959,0.24749584496021271,-0.15037338435649872,-0.37318122386932373,-0.36887165904045105,0.47168552875518799,-0.14008107781410217,-0.44841647148132324,1.577129602432251,1.1065009832382202,-0.11078276485204697,-0.67747581005096436,-0.037270732223987579,0.00057234585983678699,0.29999896883964539,-0.11917418986558914,-0.35703164339065552,-0.3957289457321167,-0.18649998307228088,-0.26091790199279785,-0.01059248298406601,0.30678504705429077,-0.36876404285430908,0.5287514328956604,0.011820597574114799,0.61557835340499878,0.84341973066329956,-0.15271951258182526,0.40586605668067932,0.40048947930335999,-0.33234933018684387,0.71150672435760498,0.42222565412521362,-0.22585704922676086,-0.054575707763433456,-0.71722108125686646,-0.33294364809989929,-0.64640307426452637,-0.065644778311252594,-0.50262457132339478,-0.15503618121147156,0.78806132078170776, 
};
const MODEL_SECTION(EI_MODEL_SECTION) ALIGN(16) float tensor_data38[1*3*3*51] = { 
  /* [0][0][][] */ 0.65154534578323364,0.30870148539543152,1.054182767868042,1.1143432855606079,-0.41631707549095154,0.058475576341152191,1.3018413782119751,1.4804987907409668,0.61021709442138672,0.3015904426574707,-0.13651092350482941,-0.54073816537857056,-0.83349478244781494,0.65964549779891968,-0.33558717370033264,0.13463173806667328,0.33875969052314758,0.69615644216537476,0.088161185383796692,-0.80766749382019043,0.37234878540039062,-0.084195509552955627,-0.080301381647586823,0.41865378618240356,-0.094101488590240479,0.1935197114944458,-0.16746696829795837,0.36127859354019165,1.074250340461731,0.94988363981246948,-0.33442547917366028,0.28581354022026062,0.16859348118305206,0.64121007919311523,0.40948927402496338,0.066544905304908752,0.58251303434371948,-0.21361437439918518,-0.087781794369220734,-0.75471603870391846,-0.6689266562461853,-0.011786096729338169,0.56815290451049805,0.28616762161254883,0.75455659627914429,-0.48617258667945862,0.58477276563644409,0.6910744309425354,0.20978757739067078,-0.46170419454574585,-0.17761796712875366, -0.3341316282749176,-0.24071654677391052,0.86378961801528931,0.7246202826499939,-0.49718612432479858,0.63537979125976562,0.15890654921531677,0.14073441922664642,0.26081904768943787,1.2323207855224609,-0.29088541865348816,-0.14253564178943634,-0.032807976007461548,0.95005953311920166,0.82508569955825806,0.25475454330444336,-0.48683023452758789,0.0063588726334273815,0.61758989095687866,-0.011841363273561001,0.8267357349395752,0.10381418466567993,0.40727099776268005,0.5411493182182312,0.27936387062072754,0.11298260092735291,0.095337726175785065,-0.079294532537460327,-0.19572305679321289,-0.38748982548713684,0.31412780284881592,-0.28782442212104797,1.8263943195343018,-0.12824943661689758,0.14043480157852173,0.61487144231796265,0.38877338171005249,0.14804042875766754,-0.49056488275527954,-0.35175225138664246,-0.44806817173957825,-0.22128331661224365,0.052184745669364929,-0.70515656471252441,0.38664960861206055,0.011307686567306519,0.10637060552835464,0.81319934129714966,0.7996821403503418,0.54313856363296509,0.37501925230026245, 0.84421658515930176,-0.14312927424907684,-0.16736988723278046,0.73133963346481323,-0.68152159452438354,-0.72157937288284302,0.11110291630029678,1.7030624151229858,-0.15913991630077362,-0.67154216766357422,0.21187549829483032,-0.6670299768447876,-0.1492154449224472,-0.46192368865013123,-0.065205059945583344,0.66853857040405273,0.24639588594436646,0.66989618539810181,-0.27955195307731628,-0.15197236835956573,-0.076067470014095306,-0.1670454740524292,0.40181159973144531,-0.44203472137451172,0.28087422251701355,-0.017333829775452614,-0.87987065315246582,-0.50841987133026123,-0.29251432418823242,0.6193077564239502,0.35319399833679199,-0.47432452440261841,0.60851436853408813,-0.46203911304473877,0.32874089479446411,0.049945976585149765,0.47760426998138428,-0.43850418925285339,-0.52000737190246582,0.69632530212402344,0.98531156778335571,-0.38580605387687683,0.92339283227920532,1.0144373178482056,-0.55139976739883423,0.7404630184173584,-0.089472077786922455,0.8306925892829895,-0.17513465881347656,0.67496347427368164,0.10787543654441833, 
  /* [0][1][][] */ 0.25965908169746399,0.53670799732208252,0.65680134296417236,0.35263165831565857,0.22160455584526062,-0.10086710005998611,0.32074642181396484,-0.77343004941940308,-0.16065467894077301,-0.78549104928970337,0.021308410912752151,-0.020709231495857239,0.76230651140213013,0.15677113831043243,-0.4653572142124176,-0.42493307590484619,-0.12912410497665405,-0.35473984479904175,-0.10132627934217453,0.093206435441970825,0.54357600212097168,-0.13352762162685394,-0.10911362618207932,0.66766893863677979,-0.20753709971904755,0.63605141639709473,0.92123770713806152,0.29076901078224182,0.17760781943798065,0.3981272280216217,-0.20512072741985321,0.72808080911636353,0.42557406425476074,0.49987411499023438,-0.14544285833835602,-0.043758288025856018,0.26124358177185059,0.75560837984085083,0.097591057419776917,1.954143762588501,-0.47749423980712891,0.5382809042930603,0.56036621332168579,-0.14007975161075592,-0.15614083409309387,0.029326815158128738,0.57673478126525879,-1.539183497428894,0.54364621639251709,-0.063936568796634674,-0.010752025991678238, -0.31068158149719238,-0.32927536964416504,0.28225377202033997,0.16742867231369019,-0.34982052445411682,0.32575339078903198,-0.086492426693439484,-0.5859302282333374,0.73815709352493286,-0.50291579961776733,-0.44456440210342407,0.68978357315063477,0.00081362825585529208,0.53994655609130859,0.35299459099769592,0.55611389875411987,-0.14432208240032196,0.32378247380256653,0.60701143741607666,-0.64507615566253662,0.76612508296966553,0.23271797597408295,0.43031477928161621,0.11370163410902023,0.58795315027236938,0.75408703088760376,-0.26864442229270935,0.015123063698410988,-0.36437591910362244,-0.43253055214881897,0.11555550247430801,-0.11262188851833344,-0.11671087890863419,0.37214913964271545,0.24661359190940857,0.41166779398918152,0.055435355752706528,0.62759983539581299,-0.47081375122070312,1.7322964668273926,0.0012314788764342666,-0.36249527335166931,-0.097793765366077423,-0.22164821624755859,-0.70432597398757935,-0.19520846009254456,0.25095120072364807,-0.041594553738832474,0.69909816980361938,0.049313902854919434,0.73271870613098145, -0.072754703462123871,0.20776128768920898,-1.0522421598434448,0.23652908205986023,-0.17868463695049286,-0.16449742019176483,-0.099341630935668945,0.49274003505706787,0.12342127412557602,-0.10193746536970139,0.50064766407012939,0.9228484034538269,0.97995454072952271,-0.23202128708362579,0.49389201402664185,0.33385837078094482,0.49052888154983521,0.49743589758872986,0.22189350426197052,0.70651042461395264,-0.023397265002131462,-0.55223625898361206,-0.14409796893596649,-0.60781389474868774,-0.041639473289251328,-0.1070769801735878,0.20498223602771759,-0.21809712052345276,-0.25986906886100769,-0.35906687378883362,0.46055731177330017,-0.48136910796165466,0.3222205638885498,-0.69501709938049316,0.41477599740028381,0.2212757021188736,0.35827705264091492,0.12493976205587387,-0.47886234521865845,2.30908203125,0.46298351883888245,-0.053565483540296555,0.53764051198959351,0.54439336061477661,-0.4940694272518158,0.61911296844482422,-0.39531460404396057,0.051622886210680008,0.023595066741108894,0.5489736795425415,0.010744206607341766, 
  /* [0][2][][] */ 0.13656292855739594,0.70002871751785278,0.31153291463851929,-0.93084424734115601,-0.095448367297649384,-0.47981166839599609,0.48588824272155762,1.108946681022644,-0.15693733096122742,0.30903154611587524,-0.35471022129058838,0.52522045373916626,0.77409720420837402,-1.2614848613739014,0.057593129575252533,-0.55739676952362061,-0.75187957286834717,-0.17282281816005707,0.09194202721118927,0.16123785078525543,0.83095425367355347,-0.33093252778053284,-0.41760161519050598,-0.093967601656913757,-0.23818440735340118,-0.060202840715646744,0.60877174139022827,0.2868276834487915,0.13023197650909424,0.2941817045211792,-0.26725319027900696,0.35449057817459106,-0.46521300077438354,0.35588467121124268,-0.37636089324951172,-0.31308981776237488,-0.60004258155822754,0.37270528078079224,0.68823921680450439,-0.64395672082901001,-0.57649970054626465,0.60260200500488281,-0.36695635318756104,-0.4305785596370697,-0.16093571484088898,-0.62362027168273926,1.0366132259368896,0.33605483174324036,0.52002948522567749,-0.44250082969665527,0.97571980953216553, -0.099895842373371124,-0.70090794563293457,0.089174069464206696,-0.23443521559238434,0.1324322521686554,-0.16489014029502869,0.020353745669126511,-0.30122688412666321,0.78902536630630493,0.18417836725711823,0.097255945205688477,-0.031242247670888901,-0.025721989572048187,-0.93932241201400757,-0.23349082469940186,-0.72569549083709717,0.30178311467170715,-0.32710716128349304,0.0032755972351878881,0.86517024040222168,0.44904226064682007,0.36051496863365173,-0.19741217792034149,1.1811151504516602,0.83242732286453247,-0.44157469272613525,0.15132002532482147,0.0013030559057369828,-0.37138798832893372,-0.67047196626663208,0.088932037353515625,-0.065520115196704865,0.42756661772727966,0.75693875551223755,0.041841160506010056,0.16392101347446442,0.14106108248233795,0.31853780150413513,-0.30646497011184692,2.3993895053863525,-0.18527993559837341,0.27213791012763977,0.0011855646735057235,0.1728595495223999,-0.46583446860313416,-0.48103421926498413,0.1325325220823288,-0.50718885660171509,-0.11333711445331573,-0.15792562067508698,0.54140031337738037, 0.87065112590789795,0.22671960294246674,-0.96505820751190186,-0.063262134790420532,-0.361887127161026,-0.23901981115341187,-0.14716057479381561,-0.48583582043647766,-0.022512128576636314,1.0352824926376343,1.4507091045379639,0.49100261926651001,0.25689917802810669,-0.61139523983001709,0.99414235353469849,0.87710738182067871,0.68334579467773438,0.68881064653396606,0.25860953330993652,0.71714287996292114,0.14427031576633453,-0.33443933725357056,-0.07560092955827713,0.86373960971832275,0.04581170529127121,-0.36322304606437683,1.1107583045959473,-0.54545271396636963,-0.75414478778839111,-1.2306382656097412,0.4504949152469635,-0.28187403082847595,1.2100605964660645,-0.0075700008310377598,0.42294621467590332,-0.15330219268798828,-0.56057816743850708,0.1665385514497757,0.045668508857488632,-1.055964469909668,-0.1711822897195816,-0.10168267041444778,-0.026358559727668762,0.16522176563739777,-0.26114362478256226,0.48178905248641968,-0.24568429589271545,1.5160093307495117,0.11472267657518387,-0.14441984891891479,-0.16523009538650513, 
};
const MODEL_SECTION(EI_MODEL_SECTION) ALIGN(16) float tensor_data39[1*3*3*51] = { 
  /* [0][0][][] */ 0.27948358654975891,-1.0173887014389038,-0.092803932726383209,-1.4534934759140015,0.38013854622840881,0.62182283401489258,1.1204178333282471,-1.0655763149261475,0.8624422550201416,-2.0295941829681396,0.30437538027763367,-0.34600016474723816,0.45867961645126343,-0.41102918982505798,-0.73265546560287476,0.26057207584381104,-0.92079818248748779,-0.77401924133300781,0.32862114906311035,-0.67257457971572876,0.59413880109786987,0.4326004683971405,0.032516784965991974,0.078741468489170074,-1.0452450513839722,-1.0209032297134399,-0.92301005125045776,0.087334401905536652,-0.079011723399162292,0.65007764101028442,-0.36787304282188416,0.94392299652099609,0.95440423488616943,0.089784234762191772,-0.48705601692199707,0.31451284885406494,0.61348342895507812,-1.0905914306640625,0.03377605602145195,-0.13611091673374176,-0.2752322256565094,0.51321500539779663,0.57323825359344482,-0.18590152263641357,0.16374948620796204,0.54695713520050049,-0.27628472447395325,-0.90594887733459473,0.58350884914398193,1.0700948238372803,-0.34356728196144104, 0.36976215243339539,-0.77492350339889526,0.070732265710830688,-0.10118492692708969,0.018591014668345451,0.82173901796340942,0.61238938570022583,-0.28500896692276001,0.63370108604431152,0.092572771012783051,0.25770872831344604,-2.8813173770904541,1.0896033048629761,0.53668671846389771,0.99826312065124512,0.36360353231430054,-0.6779254674911499,-0.19673947989940643,0.30604803562164307,-1.0000165700912476,0.51436954736709595,0.25057220458984375,-0.58784079551696777,0.76178419589996338,1.218108057975769,-0.74795043468475342,-0.29816582798957825,0.65415561199188232,-0.25846344232559204,-1.0912961959838867,-0.33500885963439941,0.067309610545635223,-0.15035548806190491,0.33213654160499573,0.18311715126037598,0.085046082735061646,-0.41300922632217407,-0.24581609666347504,1.2244942188262939,1.0579640865325928,0.40131896734237671,0.61772400140762329,0.035621952265501022,-0.92835813760757446,-0.3582768440246582,0.60708361864089966,-0.15567353367805481,1.4384711980819702,0.52275675535202026,0.751872718334198,-0.96749067306518555, -0.018004242330789566,0.070533417165279388,0.063347063958644867,0.26315248012542725,0.029811687767505646,0.093903414905071259,-0.13250243663787842,-0.087439402937889099,0.093398712575435638,-0.079608961939811707,0.037010155618190765,0.23583137989044189,-0.11277485638856888,-0.028407266363501549,-0.18950992822647095,-0.030580680817365646,0.13393136858940125,-0.12767006456851959,-0.030291706323623657,-0.14441120624542236,-0.12802451848983765,0.074684351682662964,0.038474861532449722,-0.11573975533246994,-0.079319402575492859,-0.10656634718179703,-0.059849679470062256,0.10345900803804398,-0.091863550245761871,0.27783989906311035,0.0026567766908556223,-0.043172895908355713,-0.075285010039806366,-0.039118334650993347,0.10591038316488266,0.072245553135871887,-0.041130546480417252,-0.1161605566740036,0.076129987835884094,0.062919333577156067,-0.037116225808858871,-0.032070495188236237,-0.001757363323122263,0.12140771746635437,0.071304403245449066,-0.094822138547897339,-0.074296742677688599,-0.51763111352920532,-0.14750905334949493,0.067220725119113922,-0.064199745655059814, 
